{"learner":{"attributes":{"best_iteration":"38","best_score":"0.0120737325316295","scikit_learn":"{\"_estimator_type\": \"regressor\"}"},"feature_names":[],"feature_types":[],"gradient_booster":{"model":{"gbtree_model_param":{"num_parallel_tree":"1","num_trees":"47"},"iteration_indptr":[0,1,2,3,4,5,6,7,8,9,10,11,12,13,14,15,16,17,18,19,20,21,22,23,24,25,26,27,28,29,30,31,32,33,34,35,36,37,38,39,40,41,42,43,44,45,46,47],"tree_info":[0,0,0,0,0,0,0,0,0,0,0,0,0,0,0,0,0,0,0,0,0,0,0,0,0,0,0,0,0,0,0,0,0,0,0,0,0,0,0,0,0,0,0,0,0,0,0],"trees":[{"base_weights":[2.5011473E-9,-2.7113909E-2,2.0115616E-2,-5.541161E-2,-1.7339678E-2,8.964655E-3,3.578256E-2,-7.145928E-2,-4.7749E-2,-2.6757602E-2,-1.1486836E-2,2.3147594E-3,1.5295141E-2,2.950816E-2,4.687912E-2,-8.474201E-2,-6.750033E-2,-5.4442383E-2,-4.2853847E-2,-3.0809326E-2,-2.2929113E-2,-1.5684456E-2,-7.90885E-3,-3.1011214E-2,2.6469475E-3,1.3329049E-2,2.170056E-2,2.5315877E-2,3.3923674E-2,4.1258004E-2,5.2423764E-2,-8.54182E-3,-1.95297E-3,-6.8213227E-3,-1.5088316E-3,3.9124067E-4,-5.4988745E-3,-4.3094135E-3,8.9677965E-4,-3.0373202E-3,-6.4255768E-3,-1.2384191E-3,-2.3939821E-3,-1.6786238E-3,-1.0297545E-3,-6.1445446E-3,-7.784317E-4,9.180605E-4,-4.177134E-3,-2.1228245E-6,6.5890275E-4,1.065009E-3,1.6462976E-3,5.1268633E-3,2.0848901E-3,2.7498507E-3,1.6028661E-3,3.6526583E-3,3.0579118E-3,4.190992E-3,2.789681E-3,5.429125E-3,4.447046E-3],"categories":[],"categories_nodes":[],"categories_segments":[],"categories_sizes":[],"default_left":[0,0,0,0,0,0,0,0,0,0,0,0,0,0,0,0,0,0,0,0,0,0,0,0,0,0,0,0,0,0,0,0,0,0,0,0,0,0,0,0,0,0,0,0,0,0,0,0,0,0,0,0,0,0,0,0,0,0,0,0,0,0,0],"id":0,"left_children":[1,3,5,7,9,11,13,15,17,19,21,23,25,27,29,31,33,35,37,39,41,43,45,47,49,51,53,55,57,59,61,-1,-1,-1,-1,-1,-1,-1,-1,-1,-1,-1,-1,-1,-1,-1,-1,-1,-1,-1,-1,-1,-1,-1,-1,-1,-1,-1,-1,-1,-1,-1,-1],"loss_changes":[1.1454762E1,2.4731212E0,2.1060557E0,2.7892017E-1,3.6625147E-1,2.9653847E-1,3.476429E-1,3.319335E-2,4.868245E-2,3.881812E-2,6.1499E-2,3.8131367E-2,4.5161188E-2,5.8469057E-2,5.4218292E-2,5.651593E-3,2.0454884E-2,2.1066308E-2,1.1642814E-2,1.6062975E-2,1.3707936E-2,1.10268295E-2,1.4302596E-2,1.5087426E-2,3.5803962E-2,2.303031E-2,2.0234972E-2,3.2965064E-2,1.24464035E-2,6.6963434E-3,1.10569E-2,0E0,0E0,0E0,0E0,0E0,0E0,0E0,0E0,0E0,0E0,0E0,0E0,0E0,0E0,0E0,0E0,0E0,0E0,0E0,0E0,0E0,0E0,0E0,0E0,0E0,0E0,0E0,0E0,0E0,0E0,0E0,0E0],"parents":[2147483647,0,0,1,1,2,2,3,3,4,4,5,5,6,6,7,7,8,8,9,9,10,10,11,11,12,12,13,13,14,14,15,15,16,16,17,17,18,18,19,19,20,20,21,21,22,22,23,23,24,24,25,25,26,26,27,27,28,28,29,29,30,30],"right_children":[2,4,6,8,10,12,14,16,18,20,22,24,26,28,30,32,34,36,38,40,42,44,46,48,50,52,54,56,58,60,62,-1,-1,-1,-1,-1,-1,-1,-1,-1,-1,-1,-1,-1,-1,-1,-1,-1,-1,-1,-1,-1,-1,-1,-1,-1,-1,-1,-1,-1,-1,-1,-1],"split_conditions":[4.0215874E-1,2.6323625E-1,5.268447E-1,1.5176329E-1,3.3237183E-1,4.4942775E-1,6.1235696E-1,6.820508E-2,2.0731367E-1,3.0240998E-1,3.6680004E-1,1.5176329E-1,5.3773147E-1,5.673211E-1,6.5581095E-1,6.6041005E-1,5.071642E-1,-6.439708E-1,7.106545E-1,9.7494465E-1,-4.167677E-1,2.1765447E-1,2.6677212E-1,-6.174549E-1,4.3063182E-1,4.8385596E-1,-8.0425274E-1,2.4419029E-1,-1.09080546E-1,5.942744E-1,-7.044766E-2,-8.54182E-3,-1.95297E-3,-6.8213227E-3,-1.5088316E-3,3.9124067E-4,-5.4988745E-3,-4.3094135E-3,8.9677965E-4,-3.0373202E-3,-6.4255768E-3,-1.2384191E-3,-2.3939821E-3,-1.6786238E-3,-1.0297545E-3,-6.1445446E-3,-7.784317E-4,9.180605E-4,-4.177134E-3,-2.1228245E-6,6.5890275E-4,1.065009E-3,1.6462976E-3,5.1268633E-3,2.0848901E-3,2.7498507E-3,1.6028661E-3,3.6526583E-3,3.0579118E-3,4.190992E-3,2.789681E-3,5.429125E-3,4.447046E-3],"split_indices":[407,407,407,407,407,407,407,407,407,407,407,101,33,407,407,319,337,378,3,175,235,4,390,348,407,407,70,141,141,122,349,0,0,0,0,0,0,0,0,0,0,0,0,0,0,0,0,0,0,0,0,0,0,0,0,0,0,0,0,0,0,0,0],"split_type":[0,0,0,0,0,0,0,0,0,0,0,0,0,0,0,0,0,0,0,0,0,0,0,0,0,0,0,0,0,0,0,0,0,0,0,0,0,0,0,0,0,0,0,0,0,0,0,0,0,0,0,0,0,0,0,0,0,0,0,0,0,0,0],"sum_hessian":[2.1E4,8.944E3,1.2056E4,2.295E3,6.649E3,7.044E3,5.012E3,7.39E2,1.556E3,2.547E3,4.102E3,3.436E3,3.608E3,3.204E3,1.808E3,1.65E2,5.74E2,6.53E2,9.03E2,1.234E3,1.313E3,1.886E3,2.216E3,3.3E1,3.403E3,2.763E3,8.45E2,1.647E3,1.557E3,9.02E2,9.06E2,1.63E2,2E0,5.66E2,8E0,6E0,6.47E2,8.99E2,4E0,1.22E3,1.4E1,1.16E2,1.197E3,1.564E3,3.22E2,4E0,2.212E3,7E0,2.6E1,2.03E3,1.373E3,1.492E3,1.271E3,2.2E1,8.23E2,1.332E3,3.15E2,8.7E2,6.87E2,8.58E2,4.4E1,7.29E2,1.77E2],"tree_param":{"num_deleted":"0","num_feature":"408","num_nodes":"63","size_leaf_vector":"1"}},{"base_weights":[-7.0369424E-7,-2.4408117E-2,1.8106978E-2,-4.988236E-2,-1.5609129E-2,8.06923E-3,3.2209877E-2,-6.433879E-2,-4.2979572E-2,-2.4086982E-2,-1.0340502E-2,2.0825278E-3,1.3768378E-2,2.6560796E-2,4.2200528E-2,-7.633103E-2,-6.076479E-2,-4.8398454E-2,-3.8050167E-2,-2.7736057E-2,-2.0638965E-2,-1.4117447E-2,-7.12109E-3,1.578414E-4,7.6239696E-3,1.27129145E-2,2.384621E-2,2.278693E-2,3.0535616E-2,3.7139937E-2,4.7192276E-2,-7.692846E-3,-1.8227721E-3,-6.140393E-3,-1.3747131E-3,-4.937924E-3,-2.728787E-3,-2.728219E-3,-3.9541884E-3,-2.6401305E-3,-3.7287343E-3,-1.3741906E-3,-2.1908868E-3,-1.3530769E-3,-2.2494143E-3,-5.652981E-3,-7.006239E-4,-3.0360685E-3,5.451619E-5,2.5209184E-3,6.827901E-4,1.3755792E-3,5.850661E-4,5.0144666E-3,2.213871E-3,2.5103746E-3,1.5423099E-3,3.0720942E-3,-9.21114E-4,3.7945274E-3,2.7168288E-3,-3.325142E-3,4.7317767E-3],"categories":[],"categories_nodes":[],"categories_segments":[],"categories_sizes":[],"default_left":[0,0,0,0,0,0,0,0,0,0,0,0,0,0,0,0,0,0,0,0,0,0,0,0,0,0,0,0,0,0,0,0,0,0,0,0,0,0,0,0,0,0,0,0,0,0,0,0,0,0,0,0,0,0,0,0,0,0,0,0,0,0,0],"id":1,"left_children":[1,3,5,7,9,11,13,15,17,19,21,23,25,27,29,31,33,35,37,39,41,43,45,47,49,51,53,55,57,59,61,-1,-1,-1,-1,-1,-1,-1,-1,-1,-1,-1,-1,-1,-1,-1,-1,-1,-1,-1,-1,-1,-1,-1,-1,-1,-1,-1,-1,-1,-1,-1,-1],"loss_changes":[9.282079E0,2.0042214E0,1.7065451E0,2.2635174E-1,2.9678404E-1,2.4034038E-1,2.8180265E-1,2.707839E-2,3.9748907E-2,3.148675E-2,4.9790055E-2,3.665625E-2,3.8084924E-2,4.7380686E-2,4.3944836E-2,4.3601394E-3,1.6435146E-2,1.3932824E-2,1.209259E-2,1.4760077E-2,1.12077E-2,8.969188E-3,1.218459E-2,3.0182345E-2,1.2231018E-2,2.3314178E-2,1.4202341E-2,2.7728736E-2,1.1759281E-2,6.2206984E-3,1.0729551E-2,0E0,0E0,0E0,0E0,0E0,0E0,0E0,0E0,0E0,0E0,0E0,0E0,0E0,0E0,0E0,0E0,0E0,0E0,0E0,0E0,0E0,0E0,0E0,0E0,0E0,0E0,0E0,0E0,0E0,0E0,0E0,0E0],"parents":[2147483647,0,0,1,1,2,2,3,3,4,4,5,5,6,6,7,7,8,8,9,9,10,10,11,11,12,12,13,13,14,14,15,15,16,16,17,17,18,18,19,19,20,20,21,21,22,22,23,23,24,24,25,25,26,26,27,27,28,28,29,29,30,30],"right_children":[2,4,6,8,10,12,14,16,18,20,22,24,26,28,30,32,34,36,38,40,42,44,46,48,50,52,54,56,58,60,62,-1,-1,-1,-1,-1,-1,-1,-1,-1,-1,-1,-1,-1,-1,-1,-1,-1,-1,-1,-1,-1,-1,-1,-1,-1,-1,-1,-1,-1,-1,-1,-1],"split_conditions":[4.0215874E-1,2.6323625E-1,5.268447E-1,1.5176329E-1,3.3237183E-1,4.4942775E-1,6.1235696E-1,6.820508E-2,2.1261747E-1,3.0240998E-1,3.6680004E-1,4.652461E-1,5.914209E-1,5.673211E-1,6.5581095E-1,6.6041005E-1,5.071642E-1,6.5476096E-1,1.8284172E-1,1.0865506E0,-3.1040958E-1,9.8907393E-1,2.6677212E-1,1.5176329E-1,-8.248204E-1,8.6364967E-1,-8.0425274E-1,2.0103484E-1,8.21055E-1,5.613684E-1,2.3513539E-1,-7.692846E-3,-1.8227721E-3,-6.140393E-3,-1.3747131E-3,-4.937924E-3,-2.728787E-3,-2.728219E-3,-3.9541884E-3,-2.6401305E-3,-3.7287343E-3,-1.3741906E-3,-2.1908868E-3,-1.3530769E-3,-2.2494143E-3,-5.652981E-3,-7.006239E-4,-3.0360685E-3,5.451619E-5,2.5209184E-3,6.827901E-4,1.3755792E-3,5.850661E-4,5.0144666E-3,2.213871E-3,2.5103746E-3,1.5423099E-3,3.0720942E-3,-9.21114E-4,3.7945274E-3,2.7168288E-3,-3.325142E-3,4.7317767E-3],"split_indices":[407,407,407,407,407,407,407,407,407,407,407,16,33,407,407,319,337,228,373,68,235,290,390,101,243,34,70,158,394,258,50,0,0,0,0,0,0,0,0,0,0,0,0,0,0,0,0,0,0,0,0,0,0,0,0,0,0,0,0,0,0,0,0],"split_type":[0,0,0,0,0,0,0,0,0,0,0,0,0,0,0,0,0,0,0,0,0,0,0,0,0,0,0,0,0,0,0,0,0,0,0,0,0,0,0,0,0,0,0,0,0,0,0,0,0,0,0,0,0,0,0,0,0,0,0,0,0,0,0],"sum_hessian":[2.1E4,8.944E3,1.2056E4,2.295E3,6.649E3,7.044E3,5.012E3,7.39E2,1.556E3,2.547E3,4.102E3,3.436E3,3.608E3,3.204E3,1.808E3,1.65E2,5.74E2,7.37E2,8.19E2,1.234E3,1.313E3,1.886E3,2.216E3,2.551E3,8.85E2,3.268E3,3.4E2,1.647E3,1.557E3,9.02E2,9.06E2,1.63E2,2E0,5.66E2,8E0,7.03E2,3.4E1,1.02E2,7.17E2,1.086E3,1.48E2,2.06E2,1.107E3,1.765E3,1.21E2,4E0,2.212E3,3.1E1,2.52E3,3.7E1,8.48E2,2.836E3,4.32E2,1.9E1,3.21E2,1.251E3,3.96E2,1.55E3,7E0,8.32E2,7E1,1E0,9.05E2],"tree_param":{"num_deleted":"0","num_feature":"408","num_nodes":"63","size_leaf_vector":"1"}},{"base_weights":[-1.9541862E-6,-2.0989673E-2,1.7087735E-2,-4.4907793E-2,-1.3285706E-2,9.213795E-3,3.0955091E-2,-6.049559E-2,-3.967673E-2,-2.0073563E-2,-7.4990937E-3,3.394089E-3,1.4556461E-2,2.7125034E-2,4.1038644E-2,-6.875525E-2,-5.700388E-2,-4.514727E-2,-3.467667E-2,-2.4743218E-2,-1.6933609E-2,-1.0090429E-2,-4.5377207E-3,3.8256033E-3,-1.9005151E-2,1.3572503E-2,2.6957847E-2,2.3526689E-2,3.0909408E-2,3.818095E-2,4.6059594E-2,-6.9282525E-3,-1.7012543E-3,-5.765429E-3,-3.6005833E-4,6.825232E-4,-4.5603714E-3,-3.2868672E-3,-4.251664E-3,-2.4376796E-3,-5.4923557E-3,-5.339713E-3,-1.679467E-3,-1.6823119E-3,-9.358699E-4,-4.4077678E-4,-6.175228E-3,6.189025E-5,6.389978E-4,-1.1810032E-3,-5.456122E-3,1.4870396E-3,9.271537E-4,4.8736813E-3,2.4460715E-3,2.5975383E-3,1.758043E-3,3.1145837E-3,3.9442859E-4,4.1575376E-3,3.2584358E-3,-6.4949377E-4,4.6981703E-3],"categories":[],"categories_nodes":[],"categories_segments":[],"categories_sizes":[],"default_left":[0,0,0,0,0,0,0,0,0,0,0,0,0,0,0,0,0,0,0,0,0,0,0,0,0,0,0,0,0,0,0,0,0,0,0,0,0,0,0,0,0,0,0,0,0,0,0,0,0,0,0,0,0,0,0,0,0,0,0,0,0,0,0],"id":2,"left_children":[1,3,5,7,9,11,13,15,17,19,21,23,25,27,29,31,33,35,37,39,41,43,45,47,49,51,53,55,57,59,61,-1,-1,-1,-1,-1,-1,-1,-1,-1,-1,-1,-1,-1,-1,-1,-1,-1,-1,-1,-1,-1,-1,-1,-1,-1,-1,-1,-1,-1,-1,-1,-1],"loss_changes":[7.5328627E0,1.7362795E0,1.2637064E0,1.8481731E-1,2.7994597E-1,2.2957057E-1,1.6078472E-1,1.266408E-2,4.5536518E-2,4.7688603E-2,2.9506445E-2,3.425025E-2,4.6613514E-2,4.0683508E-2,1.4770627E-2,3.3502579E-3,1.4033437E-2,1.9739985E-2,1.1416435E-2,1.3225615E-2,9.058237E-3,9.956688E-3,1.31037645E-2,2.8530493E-2,1.6496252E-2,1.9784987E-2,1.4144406E-2,2.2301495E-2,9.306192E-3,1.270318E-2,2.0319521E-2,0E0,0E0,0E0,0E0,0E0,0E0,0E0,0E0,0E0,0E0,0E0,0E0,0E0,0E0,0E0,0E0,0E0,0E0,0E0,0E0,0E0,0E0,0E0,0E0,0E0,0E0,0E0,0E0,0E0,0E0,0E0,0E0],"parents":[2147483647,0,0,1,1,2,2,3,3,4,4,5,5,6,6,7,7,8,8,9,9,10,10,11,11,12,12,13,13,14,14,15,15,16,16,17,17,18,18,19,19,20,20,21,21,22,22,23,23,24,24,25,25,26,26,27,27,28,28,29,29,30,30],"right_children":[2,4,6,8,10,12,14,16,18,20,22,24,26,28,30,32,34,36,38,40,42,44,46,48,50,52,54,56,58,60,62,-1,-1,-1,-1,-1,-1,-1,-1,-1,-1,-1,-1,-1,-1,-1,-1,-1,-1,-1,-1,-1,-1,-1,-1,-1,-1,-1,-1,-1,-1,-1,-1],"split_conditions":[4.0904438E-1,2.6323625E-1,5.4685026E-1,1.2971061E-1,3.4679446E-1,4.5910487E-1,6.3980645E-1,6.820508E-2,2.0731367E-1,3.0445707E-1,3.8150182E-1,1.3316063E0,6.0193545E-1,5.86117E-1,7.108961E-1,6.6041005E-1,5.071642E-1,-6.439708E-1,1.1581588E0,9.7494465E-1,-8.576952E-1,2.871499E-1,9.035E-1,4.3063182E-1,2.0353457E-1,3.445712E-1,-6.4758986E-1,1.04595885E-1,1.2507735E0,3.2850024E-1,-4.425892E-1,-6.9282525E-3,-1.7012543E-3,-5.765429E-3,-3.6005833E-4,6.825232E-4,-4.5603714E-3,-3.2868672E-3,-4.251664E-3,-2.4376796E-3,-5.4923557E-3,-5.339713E-3,-1.679467E-3,-1.6823119E-3,-9.358699E-4,-4.4077678E-4,-6.175228E-3,6.189025E-5,6.389978E-4,-1.1810032E-3,-5.456122E-3,1.4870396E-3,9.271537E-4,4.8736813E-3,2.4460715E-3,2.5975383E-3,1.758043E-3,3.1145837E-3,3.9442859E-4,4.1575376E-3,3.2584358E-3,-6.4949377E-4,4.6981703E-3],"split_indices":[407,407,407,407,407,407,407,407,407,407,407,85,16,407,407,319,337,378,51,175,141,33,398,407,9,175,255,158,51,85,385,0,0,0,0,0,0,0,0,0,0,0,0,0,0,0,0,0,0,0,0,0,0,0,0,0,0,0,0,0,0,0,0],"split_type":[0,0,0,0,0,0,0,0,0,0,0,0,0,0,0,0,0,0,0,0,0,0,0,0,0,0,0,0,0,0,0,0,0,0,0,0,0,0,0,0,0,0,0,0,0,0,0,0,0,0,0,0,0,0,0,0,0,0,0,0,0,0,0],"sum_hessian":[2.1E4,9.425E3,1.1575E4,2.295E3,7.13E3,7.384E3,4.191E3,5.74E2,1.721E3,3.28E3,3.85E3,3.535E3,3.849E3,3.04E3,1.151E3,1.65E2,4.09E2,8.18E2,9.03E2,1.316E3,1.964E3,2.052E3,1.798E3,3.469E3,6.6E1,3.568E3,2.81E2,1.562E3,1.478E3,7.39E2,4.12E2,1.63E2,2E0,4.04E2,5E0,7E0,8.11E2,7.38E2,1.65E2,1.302E3,1.4E1,6E0,1.958E3,1.99E2,1.853E3,1.795E3,3E0,1.542E3,1.927E3,5.6E1,1E1,2.739E3,8.29E2,2.7E1,2.54E2,1.104E3,4.58E2,1.465E3,1.3E1,4.56E2,2.83E2,7E0,4.05E2],"tree_param":{"num_deleted":"0","num_feature":"408","num_nodes":"63","size_leaf_vector":"1"}},{"base_weights":[-3.0554854E-6,-1.8896049E-2,1.5380959E-2,-3.90192E-2,-1.1451655E-2,7.838507E-3,2.7170567E-2,-5.128396E-2,-3.314875E-2,-1.7146949E-2,-6.520347E-3,3.0529997E-3,1.2635364E-2,2.2586556E-2,3.4567326E-2,-5.8338057E-2,-4.6482172E-2,-3.6940478E-2,-2.8044842E-2,-2.0898486E-2,-1.4515743E-2,-8.8300435E-3,-4.087627E-3,3.4432434E-3,-1.7203696E-2,1.1481711E-2,2.0093815E-2,2.4719156E-2,1.8306274E-2,3.1039422E-2,3.9215025E-2,-5.8901985E-3,-1.8163113E-3,3.1614513E-3,-4.6863896E-3,-3.7279886E-3,-3.4676E-4,-1.2446964E-3,-2.9355017E-3,-2.1029017E-3,4.3152785E-3,-1.3283096E-3,-1.9028963E-3,-1.3944164E-3,-7.857568E-4,-5.5608567E-4,8.235219E-5,8.045491E-5,5.991782E-4,-3.721865E-3,-6.591528E-4,1.238657E-3,5.354577E-4,-6.262145E-4,2.0914923E-3,2.070082E-3,2.6113605E-3,-4.1663155E-4,1.9666017E-3,3.8984236E-3,2.9623273E-3,1.3864253E-3,3.986295E-3],"categories":[],"categories_nodes":[],"categories_segments":[],"categories_sizes":[],"default_left":[0,0,0,0,0,0,0,0,0,0,0,0,0,0,0,0,0,0,0,0,0,0,0,0,0,0,0,0,0,0,0,0,0,0,0,0,0,0,0,0,0,0,0,0,0,0,0,0,0,0,0,0,0,0,0,0,0,0,0,0,0,0,0],"id":3,"left_children":[1,3,5,7,9,11,13,15,17,19,21,23,25,27,29,31,33,35,37,39,41,43,45,47,49,51,53,55,57,59,61,-1,-1,-1,-1,-1,-1,-1,-1,-1,-1,-1,-1,-1,-1,-1,-1,-1,-1,-1,-1,-1,-1,-1,-1,-1,-1,-1,-1,-1,-1,-1,-1],"loss_changes":[6.104233E0,1.4116116E0,1.0291543E0,1.815393E-1,1.9317096E-1,1.6204947E-1,1.5234232E-1,2.5131226E-2,3.232813E-2,3.1214952E-2,2.0697445E-2,2.801149E-2,3.010863E-2,2.5024056E-2,2.7083635E-2,6.383896E-3,1.620841E-2,1.1072636E-2,1.4736772E-2,1.1893332E-2,1.02060735E-2,9.300023E-3,1.3020797E-2,2.3330279E-2,1.3985606E-2,1.6876757E-2,1.0323912E-2,9.881735E-3,2.8561026E-2,9.938717E-3,1.1618614E-2,0E0,0E0,0E0,0E0,0E0,0E0,0E0,0E0,0E0,0E0,0E0,0E0,0E0,0E0,0E0,0E0,0E0,0E0,0E0,0E0,0E0,0E0,0E0,0E0,0E0,0E0,0E0,0E0,0E0,0E0,0E0,0E0],"parents":[2147483647,0,0,1,1,2,2,3,3,4,4,5,5,6,6,7,7,8,8,9,9,10,10,11,11,12,12,13,13,14,14,15,15,16,16,17,17,18,18,19,19,20,20,21,21,22,22,23,23,24,24,25,25,26,26,27,27,28,28,29,29,30,30],"right_children":[2,4,6,8,10,12,14,16,18,20,22,24,26,28,30,32,34,36,38,40,42,44,46,48,50,52,54,56,58,60,62,-1,-1,-1,-1,-1,-1,-1,-1,-1,-1,-1,-1,-1,-1,-1,-1,-1,-1,-1,-1,-1,-1,-1,-1,-1,-1,-1,-1,-1,-1,-1,-1],"split_conditions":[4.0904438E-1,2.7272728E-1,5.392203E-1,1.6190565E-1,3.4977204E-1,4.5910487E-1,6.1542755E-1,9.332837E-2,2.3513539E-1,3.1050527E-1,3.8150182E-1,1.3316063E0,5.846283E-1,4.1890357E-2,6.7116404E-1,6.01472E-1,-6.787325E-1,6.115844E-1,-4.7130278E-1,7.3203063E-1,7.643946E-1,3.0240998E-1,4.519401E-1,4.324928E-1,2.9626873E-1,8.6364967E-1,-8.628506E-1,5.5578303E-1,-6.1183107E-1,-5.4718834E-1,-4.425892E-1,-5.8901985E-3,-1.8163113E-3,3.1614513E-3,-4.6863896E-3,-3.7279886E-3,-3.4676E-4,-1.2446964E-3,-2.9355017E-3,-2.1029017E-3,4.3152785E-3,-1.3283096E-3,-1.9028963E-3,-1.3944164E-3,-7.857568E-4,-5.5608567E-4,8.235219E-5,8.045491E-5,5.991782E-4,-3.721865E-3,-6.591528E-4,1.238657E-3,5.354577E-4,-6.262145E-4,2.0914923E-3,2.070082E-3,2.6113605E-3,-4.1663155E-4,1.9666017E-3,3.8984236E-3,2.9623273E-3,1.3864253E-3,3.986295E-3],"split_indices":[407,407,407,407,407,407,407,407,407,407,407,85,50,158,407,394,378,133,365,320,324,118,33,407,33,34,376,407,393,223,385,0,0,0,0,0,0,0,0,0,0,0,0,0,0,0,0,0,0,0,0,0,0,0,0,0,0,0,0,0,0,0,0],"split_type":[0,0,0,0,0,0,0,0,0,0,0,0,0,0,0,0,0,0,0,0,0,0,0,0,0,0,0,0,0,0,0,0,0,0,0,0,0,0,0,0,0,0,0,0,0,0,0,0,0,0,0,0,0,0,0,0,0,0,0,0,0,0,0],"sum_hessian":[2.1E4,9.425E3,1.1575E4,2.544E3,6.881E3,7.06E3,4.515E3,8.21E2,1.723E3,3.192E3,3.689E3,3.535E3,3.525E3,2.79E3,1.725E3,3.28E2,4.93E2,9.85E2,7.38E2,1.313E3,1.879E3,1.891E3,1.798E3,3.469E3,6.6E1,3.055E3,4.7E2,1.859E3,9.31E2,9.85E2,7.4E2,3.23E2,5E0,2E0,4.91E2,9.75E2,1E1,5.8E1,6.8E2,1.311E3,2E0,1.479E3,4E2,3E2,1.591E3,1.383E3,4.15E2,1.705E3,1.764E3,2.2E1,4.4E1,2.661E3,3.94E2,1.4E1,4.56E2,4.83E2,1.376E3,5.3E1,8.78E2,1.45E2,8.4E2,1.9E1,7.21E2],"tree_param":{"num_deleted":"0","num_feature":"408","num_nodes":"63","size_leaf_vector":"1"}},{"base_weights":[-2.900094E-6,-1.782402E-2,1.3218459E-2,-3.641825E-2,-1.1401436E-2,5.734741E-3,2.3457281E-2,-4.8038777E-2,-3.173081E-2,-1.7830294E-2,-7.6105255E-3,1.5237862E-3,9.831971E-3,1.8107101E-2,2.9131668E-2,-6.048509E-2,-4.6136986E-2,-3.675928E-2,-2.8337687E-2,-1.7539792E-2,-3.937849E-2,-1.0515265E-2,-5.229926E-3,-1.2365701E-4,6.267298E-3,8.361857E-3,1.4720884E-2,5.738928E-3,1.8817952E-2,2.5983028E-2,3.4525488E-2,-6.3278466E-3,-3.8451632E-3,-4.6633384E-3,-5.125704E-4,8.0059527E-4,-3.718416E-3,-2.7168503E-3,-3.7754753E-3,-1.9836044E-3,-1.5247973E-3,-4.8197727E-3,-2.066329E-3,-1.1545381E-3,-5.444491E-4,3.738403E-3,-5.338962E-4,-2.433318E-3,1.836926E-5,5.129679E-3,5.9535133E-4,6.305933E-4,1.0860743E-3,3.8023794E-3,1.4026448E-3,9.657577E-4,-1.9039576E-3,1.9618932E-3,1.097219E-3,1.8768663E-3,2.6949828E-3,3.5430023E-3,2.2656268E-3],"categories":[],"categories_nodes":[],"categories_segments":[],"categories_sizes":[],"default_left":[0,0,0,0,0,0,0,0,0,0,0,0,0,0,0,0,0,0,0,0,0,0,0,0,0,0,0,0,0,0,0,0,0,0,0,0,0,0,0,0,0,0,0,0,0,0,0,0,0,0,0,0,0,0,0,0,0,0,0,0,0,0,0],"id":4,"left_children":[1,3,5,7,9,11,13,15,17,19,21,23,25,27,29,31,33,35,37,39,41,43,45,47,49,51,53,55,57,59,61,-1,-1,-1,-1,-1,-1,-1,-1,-1,-1,-1,-1,-1,-1,-1,-1,-1,-1,-1,-1,-1,-1,-1,-1,-1,-1,-1,-1,-1,-1,-1,-1],"loss_changes":[4.9484797E0,1.0678236E0,9.237263E-1,1.2354016E-1,1.6193289E-1,1.20188415E-1,1.5403008E-1,1.2784481E-2,2.6923299E-2,1.4745951E-2,2.8884366E-2,2.6859783E-2,2.5255084E-2,2.2953272E-2,4.10347E-2,2.7368665E-3,1.1466742E-2,1.2793779E-2,9.797394E-3,1.2511909E-2,4.2857975E-3,9.778187E-3,1.0895655E-2,1.8993359E-2,1.2213394E-2,1.3890147E-2,1.2655303E-2,1.4166027E-2,1.5369773E-2,1.03958845E-2,8.934855E-3,0E0,0E0,0E0,0E0,0E0,0E0,0E0,0E0,0E0,0E0,0E0,0E0,0E0,0E0,0E0,0E0,0E0,0E0,0E0,0E0,0E0,0E0,0E0,0E0,0E0,0E0,0E0,0E0,0E0,0E0,0E0,0E0],"parents":[2147483647,0,0,1,1,2,2,3,3,4,4,5,5,6,6,7,7,8,8,9,9,10,10,11,11,12,12,13,13,14,14,15,15,16,16,17,17,18,18,19,19,20,20,21,21,22,22,23,23,24,24,25,25,26,26,27,27,28,28,29,29,30,30],"right_children":[2,4,6,8,10,12,14,16,18,20,22,24,26,28,30,32,34,36,38,40,42,44,46,48,50,52,54,56,58,60,62,-1,-1,-1,-1,-1,-1,-1,-1,-1,-1,-1,-1,-1,-1,-1,-1,-1,-1,-1,-1,-1,-1,-1,-1,-1,-1,-1,-1,-1,-1,-1,-1],"split_conditions":[4.0215874E-1,2.6323625E-1,5.247976E-1,1.4273751E-1,3.306039E-1,4.4942775E-1,5.908626E-1,4.9967434E-2,2.0154461E-1,9.129337E-1,3.654043E-1,4.652461E-1,5.3773147E-1,-6.7043555E-1,6.5581095E-1,5.5112183E-2,5.240476E-1,-6.439708E-1,1.309903E0,3.0240998E-1,5.6790832E-2,2.1765447E-1,-9.339717E-1,1.5176329E-1,-8.0436236E-1,4.8385596E-1,-8.0425274E-1,5.8850527E-1,9.37772E-1,5.623895E-1,2.9861498E-1,-6.3278466E-3,-3.8451632E-3,-4.6633384E-3,-5.125704E-4,8.0059527E-4,-3.718416E-3,-2.7168503E-3,-3.7754753E-3,-1.9836044E-3,-1.5247973E-3,-4.8197727E-3,-2.066329E-3,-1.1545381E-3,-5.444491E-4,3.738403E-3,-5.338962E-4,-2.433318E-3,1.836926E-5,5.129679E-3,5.9535133E-4,6.305933E-4,1.0860743E-3,3.8023794E-3,1.4026448E-3,9.657577E-4,-1.9039576E-3,1.9618932E-3,1.097219E-3,1.8768663E-3,2.6949828E-3,3.5430023E-3,2.2656268E-3],"split_indices":[407,407,407,407,407,407,407,390,407,175,407,16,33,19,407,283,337,378,68,407,63,4,8,101,196,407,70,141,51,390,245,0,0,0,0,0,0,0,0,0,0,0,0,0,0,0,0,0,0,0,0,0,0,0,0,0,0,0,0,0,0,0,0],"split_type":[0,0,0,0,0,0,0,0,0,0,0,0,0,0,0,0,0,0,0,0,0,0,0,0,0,0,0,0,0,0,0,0,0,0,0,0,0,0,0,0,0,0,0,0,0,0,0,0,0,0,0,0,0,0,0,0,0,0,0,0,0,0,0],"sum_hessian":[2.1E4,8.944E3,1.2056E4,2.295E3,6.649E3,6.966E3,5.09E3,6.57E2,1.638E3,2.465E3,4.184E3,3.436E3,3.53E3,2.622E3,2.468E3,8.3E1,5.74E2,6.56E2,9.82E2,2.434E3,3.1E1,1.883E3,2.301E3,2.551E3,8.85E2,2.716E3,8.14E2,1.43E2,2.479E3,1.562E3,9.06E2,7.2E1,1.1E1,5.67E2,7E0,6E0,6.5E2,8.77E2,1.05E2,1.212E3,1.222E3,2E1,1.1E1,1.564E3,3.19E2,5E0,2.296E3,3.1E1,2.52E3,5E0,8.8E2,1.492E3,1.224E3,2.2E1,7.92E2,1.24E2,1.9E1,2.248E3,2.31E2,1.87E2,1.375E3,8.4E2,6.6E1],"tree_param":{"num_deleted":"0","num_feature":"408","num_nodes":"63","size_leaf_vector":"1"}},{"base_weights":[-3.1299685E-6,-1.5325483E-2,1.24734165E-2,-3.164872E-2,-9.286836E-3,7.125005E-3,2.3510946E-2,-4.239908E-2,-2.722629E-2,-1.4122645E-2,-5.4770554E-3,2.8314076E-3,1.1331772E-2,2.0642456E-2,3.003179E-2,-4.757189E-2,-3.8165446E-2,-3.189415E-2,-2.3978295E-2,-1.6038636E-2,-1.0946573E-2,-1.1761902E-2,-4.761409E-3,2.3292087E-3,1.4283905E-2,1.0446793E-2,2.0638827E-2,2.2853136E-2,1.7869964E-2,3.1360354E-2,2.1778353E-2,-4.937157E-3,-3.511677E-3,-3.8628352E-3,7.240434E-4,-1.7182106E-3,-3.2915499E-3,-3.1515085E-3,-2.2656003E-3,-1.700763E-3,-9.4977114E-4,-1.1619128E-3,-2.2092383E-4,-1.1335682E-3,-8.941988E-3,-7.8576274E-4,-3.3807362E-4,-1.862856E-5,4.2269504E-4,-8.435828E-4,1.7543276E-3,-1.0507088E-3,1.0721037E-3,2.1109933E-3,-3.9475486E-3,2.317925E-3,9.3277666E-4,1.8160352E-3,-2.160808E-3,3.1855695E-3,6.9870043E-4,-1.6048225E-3,2.307697E-3],"categories":[],"categories_nodes":[],"categories_segments":[],"categories_sizes":[],"default_left":[0,0,0,0,0,0,0,0,0,0,0,0,0,0,0,0,0,0,0,0,0,0,0,0,0,0,0,0,0,0,0,0,0,0,0,0,0,0,0,0,0,0,0,0,0,0,0,0,0,0,0,0,0,0,0,0,0,0,0,0,0,0,0],"id":5,"left_children":[1,3,5,7,9,11,13,15,17,19,21,23,25,27,29,31,33,35,37,39,41,43,45,47,49,51,53,55,57,59,61,-1,-1,-1,-1,-1,-1,-1,-1,-1,-1,-1,-1,-1,-1,-1,-1,-1,-1,-1,-1,-1,-1,-1,-1,-1,-1,-1,-1,-1,-1,-1,-1],"loss_changes":[4.0149536E0,9.2882943E-1,6.8320143E-1,1.19841814E-1,1.2671226E-1,1.4083472E-1,7.004738E-2,1.439023E-2,2.6616454E-2,1.8275142E-2,1.7264746E-2,2.2173006E-2,3.2228112E-2,1.569283E-2,1.1948943E-2,5.640805E-3,8.939326E-3,1.0523677E-2,9.939492E-3,1.1811167E-2,6.696865E-3,1.1994395E-2,1.4760204E-2,1.7663699E-2,1.2144413E-2,2.0794153E-2,1.0490462E-2,6.2147975E-3,1.38053E-2,1.1729836E-2,8.377254E-3,0E0,0E0,0E0,0E0,0E0,0E0,0E0,0E0,0E0,0E0,0E0,0E0,0E0,0E0,0E0,0E0,0E0,0E0,0E0,0E0,0E0,0E0,0E0,0E0,0E0,0E0,0E0,0E0,0E0,0E0,0E0,0E0],"parents":[2147483647,0,0,1,1,2,2,3,3,4,4,5,5,6,6,7,7,8,8,9,9,10,10,11,11,12,12,13,13,14,14,15,15,16,16,17,17,18,18,19,19,20,20,21,21,22,22,23,23,24,24,25,25,26,26,27,27,28,28,29,29,30,30],"right_children":[2,4,6,8,10,12,14,16,18,20,22,24,26,28,30,32,34,36,38,40,42,44,46,48,50,52,54,56,58,60,62,-1,-1,-1,-1,-1,-1,-1,-1,-1,-1,-1,-1,-1,-1,-1,-1,-1,-1,-1,-1,-1,-1,-1,-1,-1,-1,-1,-1,-1,-1,-1,-1],"split_conditions":[4.0904438E-1,2.7272728E-1,5.5578303E-1,1.5176329E-1,3.4679446E-1,4.6515307E-1,6.3980645E-1,9.332837E-2,2.1261747E-1,3.2297385E-1,2.8956917E-1,6.0193545E-1,6.0193545E-1,-9.865571E-2,6.2427968E-2,2.6323625E-1,8.746588E-1,-3.4302E-1,1.6944264E-1,3.286117E-1,4.0317762E-1,8.21055E-1,3.6810273E-1,4.313762E-1,-4.2613396E-1,-1.3975234E0,7.9714143E-1,1.2282417E0,1.309903E0,4.2443615E-1,-3.246031E-1,-4.937157E-3,-3.511677E-3,-3.8628352E-3,7.240434E-4,-1.7182106E-3,-3.2915499E-3,-3.1515085E-3,-2.2656003E-3,-1.700763E-3,-9.4977114E-4,-1.1619128E-3,-2.2092383E-4,-1.1335682E-3,-8.941988E-3,-7.8576274E-4,-3.3807362E-4,-1.862856E-5,4.2269504E-4,-8.435828E-4,1.7543276E-3,-1.0507088E-3,1.0721037E-3,2.1109933E-3,-3.9475486E-3,2.317925E-3,9.3277666E-4,1.8160352E-3,-2.160808E-3,3.1855695E-3,6.9870043E-4,-1.6048225E-3,2.307697E-3],"split_indices":[407,407,407,407,407,407,407,407,407,407,67,33,16,141,349,16,209,128,50,149,183,326,407,407,289,204,12,121,51,219,82,0,0,0,0,0,0,0,0,0,0,0,0,0,0,0,0,0,0,0,0,0,0,0,0,0,0,0,0,0,0,0,0],"split_type":[0,0,0,0,0,0,0,0,0,0,0,0,0,0,0,0,0,0,0,0,0,0,0,0,0,0,0,0,0,0,0,0,0,0,0,0,0,0,0,0,0,0,0,0,0,0,0,0,0,0,0,0,0,0,0,0,0,0,0,0,0,0,0],"sum_hessian":[2.1E4,9.425E3,1.1575E4,2.544E3,6.881E3,7.798E3,3.777E3,7.39E2,1.805E3,3.031E3,3.85E3,3.86E3,3.938E3,2.626E3,1.151E3,3.28E2,4.11E2,7.37E2,1.068E3,1.888E3,1.143E3,3.92E2,3.458E3,3.699E3,1.61E2,3.598E3,3.4E2,1.457E3,1.169E3,9.89E2,1.62E2,2.84E2,4.4E1,4.07E2,4E0,4.9E1,6.88E2,1.56E2,9.12E2,1.643E3,2.45E2,1.061E3,8.2E1,3.91E2,1E0,1.065E3,2.393E3,1.591E3,2.108E3,2E1,1.41E2,4.6E1,3.552E3,3.38E2,2E0,1.422E3,3.5E1,1.161E3,8E0,9.69E2,2E1,5E0,1.57E2],"tree_param":{"num_deleted":"0","num_feature":"408","num_nodes":"63","size_leaf_vector":"1"}},{"base_weights":[-4.257765E-6,-1.2960532E-2,1.1960035E-2,-2.84925E-2,-7.7155633E-3,7.090762E-3,2.1161834E-2,-3.5809457E-2,-2.3186004E-2,-1.1934304E-2,-3.6615478E-3,4.0145116E-3,1.1052821E-2,1.8579315E-2,2.7032591E-2,-4.112595E-2,-3.1196885E-2,-2.2087175E-2,-3.0889263E-2,-1.4436171E-2,-9.310847E-3,-2.4852776E-3,-6.9267806E-3,2.3921067E-2,3.6712345E-3,-1.1642263E-4,1.1724381E-2,1.5944546E-2,2.0613642E-2,-3.6831122E-4,2.7345655E-2,1.4813207E-3,-4.138398E-3,-3.1967019E-3,1.1266007E-3,-2.2965313E-3,-9.610044E-4,-4.318399E-3,-2.6775186E-3,-1.43192E-3,-6.5979133E-3,-1.0246681E-3,-4.383358E-4,-2.683863E-4,1.8222862E-3,-4.2967263E-4,-1.2090018E-3,5.2800435E-3,1.7421533E-3,3.3037819E-4,1.5696703E-3,-6.448532E-4,1.072668E-3,1.2470916E-3,3.5585443E-4,1.6638691E-3,-3.716614E-4,1.9193856E-3,2.4078058E-3,-2.9287569E-3,1.0181265E-3,2.836485E-3,1.885104E-3],"categories":[],"categories_nodes":[],"categories_segments":[],"categories_sizes":[],"default_left":[0,0,0,0,0,0,0,0,0,0,0,0,0,0,0,0,0,0,0,0,0,0,0,0,0,0,0,0,0,0,0,0,0,0,0,0,0,0,0,0,0,0,0,0,0,0,0,0,0,0,0,0,0,0,0,0,0,0,0,0,0,0,0],"id":6,"left_children":[1,3,5,7,9,11,13,15,17,19,21,23,25,27,29,31,33,35,37,39,41,43,45,47,49,51,53,55,57,59,61,-1,-1,-1,-1,-1,-1,-1,-1,-1,-1,-1,-1,-1,-1,-1,-1,-1,-1,-1,-1,-1,-1,-1,-1,-1,-1,-1,-1,-1,-1,-1,-1],"loss_changes":[3.2555757E0,8.211887E-1,4.8908758E-1,9.7985506E-2,1.2889463E-1,8.700436E-2,5.6777358E-2,2.4907231E-2,1.1828363E-2,2.411127E-2,1.4754489E-2,2.7396366E-2,2.3411423E-2,1.3751984E-2,9.892166E-3,7.7289343E-3,1.919651E-2,1.3989985E-2,8.0495775E-3,1.04441345E-2,8.2831085E-3,1.1682693E-2,1.3772078E-2,1.1843897E-2,1.7424457E-2,1.22906E-2,1.7902434E-2,1.5743077E-2,6.812632E-3,4.5693875E-3,9.326339E-3,0E0,0E0,0E0,0E0,0E0,0E0,0E0,0E0,0E0,0E0,0E0,0E0,0E0,0E0,0E0,0E0,0E0,0E0,0E0,0E0,0E0,0E0,0E0,0E0,0E0,0E0,0E0,0E0,0E0,0E0,0E0,0E0],"parents":[2147483647,0,0,1,1,2,2,3,3,4,4,5,5,6,6,7,7,8,8,9,9,10,10,11,11,12,12,13,13,14,14,15,15,16,16,17,17,18,18,19,19,20,20,21,21,22,22,23,23,24,24,25,25,26,26,27,27,28,28,29,29,30,30],"right_children":[2,4,6,8,10,12,14,16,18,20,22,24,26,28,30,32,34,36,38,40,42,44,46,48,50,52,54,56,58,60,62,-1,-1,-1,-1,-1,-1,-1,-1,-1,-1,-1,-1,-1,-1,-1,-1,-1,-1,-1,-1,-1,-1,-1,-1,-1,-1,-1,-1,-1,-1,-1,-1],"split_conditions":[4.1825625E-1,2.7272728E-1,5.5578303E-1,1.8284172E-1,3.5879782E-1,4.8208803E-1,6.3980645E-1,1.1900996E-1,2.082112E-1,3.2297385E-1,4.6241516E-1,-8.248204E-1,-6.593253E-1,5.86117E-1,-8.2826024E-1,-8.37827E-1,5.037685E-1,4.9126634E-1,-1.429717E-1,7.9720056E-1,2.2700918E-1,1.1446729E0,1.5628466E-1,-9.611646E-1,5.964455E-1,-1.2029351E-1,9.188717E-1,1.0972918E0,-3.3553038E-2,-3.9676717E-1,1.9019921E-1,1.4813207E-3,-4.138398E-3,-3.1967019E-3,1.1266007E-3,-2.2965313E-3,-9.610044E-4,-4.318399E-3,-2.6775186E-3,-1.43192E-3,-6.5979133E-3,-1.0246681E-3,-4.383358E-4,-2.683863E-4,1.8222862E-3,-4.2967263E-4,-1.2090018E-3,5.2800435E-3,1.7421533E-3,3.3037819E-4,1.5696703E-3,-6.448532E-4,1.072668E-3,1.2470916E-3,3.5585443E-4,1.6638691E-3,-3.716614E-4,1.9193856E-3,2.4078058E-3,-2.9287569E-3,1.0181265E-3,2.836485E-3,1.885104E-3],"split_indices":[407,407,407,407,407,407,407,407,232,407,256,243,19,407,259,59,67,20,147,285,4,136,285,238,16,400,34,359,35,258,66,0,0,0,0,0,0,0,0,0,0,0,0,0,0,0,0,0,0,0,0,0,0,0,0,0,0,0,0,0,0,0,0],"split_type":[0,0,0,0,0,0,0,0,0,0,0,0,0,0,0,0,0,0,0,0,0,0,0,0,0,0,0,0,0,0,0,0,0,0,0,0,0,0,0,0,0,0,0,0,0,0,0,0,0,0,0,0,0,0,0,0,0,0,0,0,0,0,0],"sum_hessian":[2.1E4,1.0082E4,1.0918E4,2.544E3,7.538E3,7.141E3,3.777E3,1.067E3,1.477E3,3.693E3,3.845E3,4.021E3,3.12E3,2.626E3,1.151E3,4.92E2,5.75E2,1.296E3,1.81E2,1.888E3,1.805E3,2.828E3,1.017E3,6.7E1,3.954E3,1.77E2,2.943E3,1.148E3,1.478E3,1.3E1,1.138E3,2E0,4.9E2,5.65E2,1E1,1.21E3,8.6E1,4.3E1,1.38E2,1.885E3,3E0,1.516E3,2.89E2,2.802E3,2.6E1,6.75E2,3.42E2,1.1E1,5.6E1,3.838E3,1.16E2,1.12E2,6.5E1,2.696E3,2.47E2,1.109E3,3.9E1,1.053E3,4.25E2,3E0,1E1,1.014E3,1.24E2],"tree_param":{"num_deleted":"0","num_feature":"408","num_nodes":"63","size_leaf_vector":"1"}},{"base_weights":[-4.0796267E-6,-1.3042329E-2,9.6689025E-3,-2.73658E-2,-8.55329E-3,4.154687E-3,1.721317E-2,-3.7018742E-2,-2.44509E-2,-1.3123818E-2,-5.5324063E-3,1.8969156E-4,6.5473286E-3,1.4186384E-2,2.269671E-2,-3.8238596E-2,-2.3363573E-2,-2.7494652E-2,-2.1373658E-2,-1.2627059E-2,-2.6814193E-2,-7.459317E-3,-3.7561946E-3,-1.31787285E-2,7.3580723E-4,7.4388958E-3,1.0761132E-3,2.6471524E-3,1.4638495E-2,2.1049295E-2,2.8214244E-2,2.6611676E-3,-3.8441846E-3,-2.496922E-3,2.2036757E-3,1.4031027E-3,-2.7920005E-3,-2.4619454E-3,-1.7210592E-3,-9.507008E-4,-1.4045498E-3,-6.0921996E-3,-2.1079856E-3,-1.2587748E-3,-6.722352E-4,-4.969864E-3,-3.6467394E-4,-1.2320027E-4,-2.6319365E-3,-4.7213074E-5,4.91846E-4,6.846957E-4,1.5919531E-3,1.878185E-4,-1.4493214E-3,9.6119446E-4,-1.6276613E-3,1.3174613E-3,1.754131E-3,2.70183E-3,1.9621558E-3,3.037619E-3,1.2273071E-3],"categories":[],"categories_nodes":[],"categories_segments":[],"categories_sizes":[],"default_left":[0,0,0,0,0,0,0,0,0,0,0,0,0,0,0,0,0,0,0,0,0,0,0,0,0,0,0,0,0,0,0,0,0,0,0,0,0,0,0,0,0,0,0,0,0,0,0,0,0,0,0,0,0,0,0,0,0,0,0,0,0,0,0],"id":7,"left_children":[1,3,5,7,9,11,13,15,17,19,21,23,25,27,29,31,33,35,37,39,41,43,45,47,49,51,53,55,57,59,61,-1,-1,-1,-1,-1,-1,-1,-1,-1,-1,-1,-1,-1,-1,-1,-1,-1,-1,-1,-1,-1,-1,-1,-1,-1,-1,-1,-1,-1,-1,-1,-1],"loss_changes":[2.648746E0,5.749171E-1,5.0150824E-1,5.9139967E-2,9.398094E-2,6.6093385E-2,8.4175944E-2,7.318616E-3,1.47919655E-2,1.8091619E-2,1.40149E-2,1.915944E-2,2.118671E-2,1.7088652E-2,1.5849352E-2,6.967485E-3,3.6848038E-3,1.4910698E-2,1.06699765E-2,1.1448294E-2,1.7100826E-2,7.3496103E-3,1.056499E-2,1.6137296E-2,1.2739385E-2,1.8645763E-2,7.6447283E-3,1.6631462E-2,1.3192713E-2,1.1375308E-2,1.3860792E-2,0E0,0E0,0E0,0E0,0E0,0E0,0E0,0E0,0E0,0E0,0E0,0E0,0E0,0E0,0E0,0E0,0E0,0E0,0E0,0E0,0E0,0E0,0E0,0E0,0E0,0E0,0E0,0E0,0E0,0E0,0E0,0E0],"parents":[2147483647,0,0,1,1,2,2,3,3,4,4,5,5,6,6,7,7,8,8,9,9,10,10,11,11,12,12,13,13,14,14,15,15,16,16,17,17,18,18,19,19,20,20,21,21,22,22,23,23,24,24,25,25,26,26,27,27,28,28,29,29,30,30],"right_children":[2,4,6,8,10,12,14,16,18,20,22,24,26,28,30,32,34,36,38,40,42,44,46,48,50,52,54,56,58,60,62,-1,-1,-1,-1,-1,-1,-1,-1,-1,-1,-1,-1,-1,-1,-1,-1,-1,-1,-1,-1,-1,-1,-1,-1,-1,-1,-1,-1,-1,-1,-1,-1],"split_conditions":[4.0215874E-1,2.5523403E-1,5.247976E-1,1.1900996E-1,3.3237183E-1,4.3770355E-1,6.1235696E-1,2.1913092E-1,2.0154461E-1,1.3823849E0,3.6810273E-1,-6.679486E-1,8.335181E-1,-5.932197E-1,7.108961E-1,-7.6267457E-1,1.3031648E0,-6.439708E-1,2.0796984E-2,-1.9000523E-1,-4.0527683E-1,-5.2610356E-1,2.6677212E-1,6.6739796E-3,4.6999162E-1,5.964455E-1,1.1685683E0,5.240436E-1,5.797897E-1,-4.6187165E-1,8.350237E-1,2.6611676E-3,-3.8441846E-3,-2.496922E-3,2.2036757E-3,1.4031027E-3,-2.7920005E-3,-2.4619454E-3,-1.7210592E-3,-9.507008E-4,-1.4045498E-3,-6.0921996E-3,-2.1079856E-3,-1.2587748E-3,-6.722352E-4,-4.969864E-3,-3.6467394E-4,-1.2320027E-4,-2.6319365E-3,-4.7213074E-5,4.91846E-4,6.846957E-4,1.5919531E-3,1.878185E-4,-1.4493214E-3,9.6119446E-4,-1.6276613E-3,1.3174613E-3,1.754131E-3,2.70183E-3,1.9621558E-3,3.037619E-3,1.2273071E-3],"split_indices":[407,407,407,407,407,407,407,356,407,51,407,396,34,393,407,159,69,378,114,252,382,344,390,115,16,16,359,158,407,223,50,0,0,0,0,0,0,0,0,0,0,0,0,0,0,0,0,0,0,0,0,0,0,0,0,0,0,0,0,0,0,0,0],"split_type":[0,0,0,0,0,0,0,0,0,0,0,0,0,0,0,0,0,0,0,0,0,0,0,0,0,0,0,0,0,0,0,0,0,0,0,0,0,0,0,0,0,0,0,0,0,0,0,0,0,0,0,0,0,0,0,0,0,0,0,0,0,0,0],"sum_hessian":[2.1E4,8.944E3,1.2056E4,2.133E3,6.811E3,6.966E3,5.09E3,4.92E2,1.641E3,2.709E3,4.102E3,2.622E3,4.344E3,3.282E3,1.808E3,4.5E2,4.2E1,8.21E2,8.2E2,2.616E3,9.3E1,1.966E3,2.136E3,1.02E2,2.52E3,3.735E3,6.09E2,1.24E2,3.158E3,1.396E3,4.12E2,1E0,4.49E2,4.1E1,1E0,8E0,8.13E2,4.58E2,3.62E2,8.2E2,1.796E3,1.2E1,8.1E1,2.45E2,1.721E3,4E0,2.132E3,5.4E1,4.8E1,1.956E3,5.64E2,3.493E3,2.42E2,5.8E2,2.9E1,9.1E1,3.3E1,2.103E3,1.055E3,2.66E2,1.13E3,3.62E2,5E1],"tree_param":{"num_deleted":"0","num_feature":"408","num_nodes":"63","size_leaf_vector":"1"}},{"base_weights":[-4.377264E-6,-1.1837883E-2,8.632201E-3,-2.4632525E-2,-7.777894E-3,3.6765272E-3,1.5494079E-2,-3.2474674E-2,-2.1726198E-2,-1.2055686E-2,-5.1821987E-3,1.0979121E-3,6.766985E-3,1.286157E-2,2.0618953E-2,-4.202516E-2,-3.0778099E-2,-2.4871202E-2,-1.896572E-2,-1.164539E-2,-2.3355676E-2,-6.985192E-3,-3.5768403E-3,-6.164148E-3,1.8406628E-3,6.263033E-3,1.5307478E-2,1.4303495E-2,9.929891E-3,1.9099552E-2,2.5403148E-2,-4.4465484E-3,-2.3677754E-3,-3.1192899E-3,8.019522E-4,-2.3534351E-3,-3.3609048E-3,-1.8415861E-3,-4.989555E-3,-1.1811013E-3,1.0193471E-3,-5.529843E-3,-1.7584473E-3,-6.429808E-4,-1.4206868E-3,-3.7639617E-4,2.0871274E-3,-2.757338E-4,-1.539769E-3,6.866367E-5,5.6505215E-4,7.173866E-4,1.2105097E-4,4.752021E-3,1.1386544E-3,1.4114932E-3,3.6943187E-3,-4.49079E-4,1.085788E-3,2.531453E-3,1.78266E-3,-1.654683E-3,2.6167182E-3],"categories":[],"categories_nodes":[],"categories_segments":[],"categories_sizes":[],"default_left":[0,0,0,0,0,0,0,0,0,0,0,0,0,0,0,0,0,0,0,0,0,0,0,0,0,0,0,0,0,0,0,0,0,0,0,0,0,0,0,0,0,0,0,0,0,0,0,0,0,0,0,0,0,0,0,0,0,0,0,0,0,0,0],"id":8,"left_children":[1,3,5,7,9,11,13,15,17,19,21,23,25,27,29,31,33,35,37,39,41,43,45,47,49,51,53,55,57,59,61,-1,-1,-1,-1,-1,-1,-1,-1,-1,-1,-1,-1,-1,-1,-1,-1,-1,-1,-1,-1,-1,-1,-1,-1,-1,-1,-1,-1,-1,-1,-1,-1],"loss_changes":[2.1464252E0,4.601028E-1,4.128006E-1,4.7932267E-2,7.464418E-2,5.6182705E-2,6.841874E-2,8.023322E-3,1.3071775E-2,1.15042925E-2,1.2099877E-2,2.0750893E-2,1.3707042E-2,1.4086962E-2,1.20613575E-2,2.708152E-3,8.168042E-3,7.689595E-3,1.3282001E-2,8.99297E-3,1.5250232E-2,7.817961E-3,1.0225384E-2,1.1187665E-2,1.5336124E-2,1.393538E-2,2.1941014E-2,9.100974E-3,1.49431825E-2,9.94423E-3,1.3670087E-2,0E0,0E0,0E0,0E0,0E0,0E0,0E0,0E0,0E0,0E0,0E0,0E0,0E0,0E0,0E0,0E0,0E0,0E0,0E0,0E0,0E0,0E0,0E0,0E0,0E0,0E0,0E0,0E0,0E0,0E0,0E0,0E0],"parents":[2147483647,0,0,1,1,2,2,3,3,4,4,5,5,6,6,7,7,8,8,9,9,10,10,11,11,12,12,13,13,14,14,15,15,16,16,17,17,18,18,19,19,20,20,21,21,22,22,23,23,24,24,25,25,26,26,27,27,28,28,29,29,30,30],"right_children":[2,4,6,8,10,12,14,16,18,20,22,24,26,28,30,32,34,36,38,40,42,44,46,48,50,52,54,56,58,60,62,-1,-1,-1,-1,-1,-1,-1,-1,-1,-1,-1,-1,-1,-1,-1,-1,-1,-1,-1,-1,-1,-1,-1,-1,-1,-1,-1,-1,-1,-1,-1,-1],"split_conditions":[4.009491E-1,2.5523403E-1,5.247976E-1,1.2971061E-1,3.2883596E-1,4.5454547E-1,6.1542755E-1,4.9967434E-2,-1.064811E-1,1.3823849E0,3.654043E-1,-5.523862E-1,6.0193545E-1,4.6319947E-2,7.108961E-1,5.5112183E-2,6.421463E-1,4.7562087E-1,4.506374E-1,6.115844E-1,-4.0527683E-1,9.8907393E-1,6.6041005E-1,2.9174566E-1,4.786452E-1,5.265812E-1,-6.4758986E-1,7.389969E-1,-6.1183107E-1,-5.4718834E-1,-4.425892E-1,-4.4465484E-3,-2.3677754E-3,-3.1192899E-3,8.019522E-4,-2.3534351E-3,-3.3609048E-3,-1.8415861E-3,-4.989555E-3,-1.1811013E-3,1.0193471E-3,-5.529843E-3,-1.7584473E-3,-6.429808E-4,-1.4206868E-3,-3.7639617E-4,2.0871274E-3,-2.757338E-4,-1.539769E-3,6.866367E-5,5.6505215E-4,7.173866E-4,1.2105097E-4,4.752021E-3,1.1386544E-3,1.4114932E-3,3.6943187E-3,-4.49079E-4,1.085788E-3,2.531453E-3,1.78266E-3,-1.654683E-3,2.6167182E-3],"split_indices":[407,407,407,407,407,407,407,390,133,51,407,379,16,158,407,283,7,292,339,133,382,290,132,185,16,343,255,16,393,223,385,0,0,0,0,0,0,0,0,0,0,0,0,0,0,0,0,0,0,0,0,0,0,0,0,0,0,0,0,0,0,0,0],"split_type":[0,0,0,0,0,0,0,0,0,0,0,0,0,0,0,0,0,0,0,0,0,0,0,0,0,0,0,0,0,0,0,0,0,0,0,0,0,0,0,0,0,0,0,0,0,0,0,0,0,0,0,0,0,0,0,0,0,0,0,0,0,0,0],"sum_hessian":[2.1E4,8.86E3,1.214E4,2.133E3,6.727E3,7.05E3,5.09E3,5.74E2,1.559E3,2.539E3,4.188E3,3.844E3,3.206E3,3.365E3,1.725E3,8.3E1,4.91E2,7.25E2,8.34E2,2.452E3,8.7E1,1.971E3,2.217E3,3.56E2,3.488E3,3.029E3,1.77E2,2.253E3,1.112E3,1.313E3,4.12E2,7.2E1,1.1E1,4.86E2,5E0,6.32E2,9.3E1,8.21E2,1.3E1,2.434E3,1.8E1,1.2E1,7.5E1,1.832E3,1.39E2,2.201E3,1.6E1,2.61E2,9.5E1,2.678E3,8.1E2,2.566E3,4.63E2,1.8E1,1.59E2,2.236E3,1.7E1,6.7E1,1.045E3,2.2E2,1.093E3,7E0,4.05E2],"tree_param":{"num_deleted":"0","num_feature":"408","num_nodes":"63","size_leaf_vector":"1"}},{"base_weights":[-4.554696E-6,-8.9061055E-3,9.327618E-3,-1.9174604E-2,-4.5565874E-3,6.0185413E-3,1.6096365E-2,-2.5339367E-2,-1.4867083E-2,-7.5360183E-3,-2.054236E-3,3.5441879E-3,8.4804E-3,1.4410028E-2,2.0652365E-2,-3.0053692E-2,-2.2481093E-2,-1.3254422E-2,-1.9443816E-2,-1.3962818E-2,-7.0914165E-3,-6.207706E-3,-1.447562E-3,3.960533E-3,-8.097777E-3,1.01416325E-2,5.1156315E-3,1.4548723E-2,-1.2815749E-2,3.8323686E-2,2.0045856E-2,1.8467976E-3,-3.028895E-3,1.5069199E-3,-2.2868651E-3,-1.3492893E-3,1.8019632E-3,-2.7182708E-3,-1.7045736E-3,-2.7225348E-3,-1.0898387E-3,-6.9731835E-4,-3.371939E-3,-5.7733123E-4,-7.957819E-3,-2.2758216E-4,2.9728675E-4,1.9253752E-3,3.663501E-4,-5.136419E-4,-6.3013956E-3,9.378122E-4,1.5037255E-3,-4.359154E-4,6.410269E-4,1.4302942E-3,2.8287943E-3,7.8970316E-4,-3.169771E-3,4.5211203E-3,4.3863305E-4,2.0205989E-3,-3.344806E-3],"categories":[],"categories_nodes":[],"categories_segments":[],"categories_sizes":[],"default_left":[0,0,0,0,0,0,0,0,0,0,0,0,0,0,0,0,0,0,0,0,0,0,0,0,0,0,0,0,0,0,0,0,0,0,0,0,0,0,0,0,0,0,0,0,0,0,0,0,0,0,0,0,0,0,0,0,0,0,0,0,0,0,0],"id":9,"left_children":[1,3,5,7,9,11,13,15,17,19,21,23,25,27,29,31,33,35,37,39,41,43,45,47,49,51,53,55,57,59,61,-1,-1,-1,-1,-1,-1,-1,-1,-1,-1,-1,-1,-1,-1,-1,-1,-1,-1,-1,-1,-1,-1,-1,-1,-1,-1,-1,-1,-1,-1,-1,-1],"loss_changes":[1.7446532E0,4.7999555E-1,2.2955298E-1,8.454561E-2,5.6289077E-2,4.1928276E-2,2.55633E-2,1.7030299E-2,1.3654947E-2,9.7503215E-3,1.0337321E-2,1.6691469E-2,1.9243643E-2,9.475589E-3,8.952826E-3,6.186992E-3,1.2307078E-2,1.0661915E-2,8.611754E-3,8.725837E-3,9.921312E-3,1.6209459E-2,1.312873E-2,1.500627E-2,1.9028885E-2,8.493438E-3,1.4048448E-2,7.861912E-3,5.3345906E-3,6.5802634E-3,8.205414E-3,0E0,0E0,0E0,0E0,0E0,0E0,0E0,0E0,0E0,0E0,0E0,0E0,0E0,0E0,0E0,0E0,0E0,0E0,0E0,0E0,0E0,0E0,0E0,0E0,0E0,0E0,0E0,0E0,0E0,0E0,0E0,0E0],"parents":[2147483647,0,0,1,1,2,2,3,3,4,4,5,5,6,6,7,7,8,8,9,9,10,10,11,11,12,12,13,13,14,14,15,15,16,16,17,17,18,18,19,19,20,20,21,21,22,22,23,23,24,24,25,25,26,26,27,27,28,28,29,29,30,30],"right_children":[2,4,6,8,10,12,14,16,18,20,22,24,26,28,30,32,34,36,38,40,42,44,46,48,50,52,54,56,58,60,62,-1,-1,-1,-1,-1,-1,-1,-1,-1,-1,-1,-1,-1,-1,-1,-1,-1,-1,-1,-1,-1,-1,-1,-1,-1,-1,-1,-1,-1,-1,-1,-1],"split_conditions":[4.2728204E-1,2.9384944E-1,5.673211E-1,2.0154461E-1,3.654043E-1,4.8385596E-1,6.5581095E-1,1.1900996E-1,9.267503E-1,2.0731367E-1,3.1394807E-1,8.564008E-1,1.2913579E-1,8.21055E-1,4.1490647E-1,-8.37827E-1,-6.439708E-1,6.115844E-1,-1.6063997E-1,-2.0662329E-1,9.936062E-1,8.21055E-1,4.331943E-1,-8.248204E-1,5.091435E-1,5.732876E-1,-6.9091934E-1,1.309903E0,-2.3835778E-1,6.01472E-1,9.452318E-1,1.8467976E-3,-3.028895E-3,1.5069199E-3,-2.2868651E-3,-1.3492893E-3,1.8019632E-3,-2.7182708E-3,-1.7045736E-3,-2.7225348E-3,-1.0898387E-3,-6.9731835E-4,-3.371939E-3,-5.7733123E-4,-7.957819E-3,-2.2758216E-4,2.9728675E-4,1.9253752E-3,3.663501E-4,-5.136419E-4,-6.3013956E-3,9.378122E-4,1.5037255E-3,-4.359154E-4,6.410269E-4,1.4302942E-3,2.8287943E-3,7.8970316E-4,-3.169771E-3,4.5211203E-3,4.3863305E-4,2.0205989E-3,-3.344806E-3],"split_indices":[407,407,407,407,407,407,407,407,34,305,67,290,175,394,339,59,378,133,182,177,393,326,240,243,7,274,19,153,340,37,329,0,0,0,0,0,0,0,0,0,0,0,0,0,0,0,0,0,0,0,0,0,0,0,0,0,0,0,0,0,0,0,0],"split_type":[0,0,0,0,0,0,0,0,0,0,0,0,0,0,0,0,0,0,0,0,0,0,0,0,0,0,0,0,0,0,0,0,0,0,0,0,0,0,0,0,0,0,0,0,0,0,0,0,0,0,0,0,0,0,0,0,0,0,0,0,0,0,0],"sum_hessian":[2.1E4,1.0748E4,1.0252E4,3.197E3,7.551E3,6.887E3,3.365E3,1.313E3,1.884E3,3.446E3,4.105E3,3.436E3,3.451E3,2.459E3,9.06E2,4.92E2,8.21E2,1.396E3,4.88E2,2.21E2,3.225E3,5.22E2,3.583E3,3.318E3,1.18E2,2.309E3,1.142E3,2.447E3,1.2E1,2.8E1,8.78E2,2E0,4.9E2,8E0,8.13E2,1.386E3,1E1,1.13E2,3.75E2,4E1,1.81E2,3.212E3,1.3E1,5.2E2,2E0,3.018E3,5.65E2,6.2E1,3.256E3,1.13E2,5E0,2E3,3.09E2,1.37E2,1.005E3,2.406E3,4.1E1,6E0,6E0,2.3E1,5E0,8.76E2,2E0],"tree_param":{"num_deleted":"0","num_feature":"408","num_nodes":"63","size_leaf_vector":"1"}},{"base_weights":[-4.9872187E-6,-9.173788E-3,7.3594963E-3,-1.9548532E-2,-5.798493E-3,3.6801419E-3,1.3168574E-2,-2.4819955E-2,-1.6597576E-2,-9.380097E-3,-3.775066E-3,1.3414737E-3,6.0714907E-3,1.0925648E-2,1.678783E-2,-3.1835422E-2,-2.3049742E-2,-2.2132605E-2,-1.5344628E-2,-8.6622415E-3,-1.5745638E-2,-2.6833126E-3,-6.139032E-3,1.6448383E-3,-1.4711597E-2,5.2920002E-3,1.1116183E-2,-1.1642426E-2,1.1109158E-2,1.4146072E-2,1.8976605E-2,-3.2861065E-3,4.790289E-5,-2.3906254E-3,-6.051582E-4,-2.3366099E-3,9.034766E-4,4.7502466E-3,-1.5540841E-3,-8.767132E-4,5.3526624E-3,-5.9754015E-3,-1.445558E-3,-2.5756852E-4,-3.0066129E-3,-9.405382E-5,-7.61945E-4,1.4294528E-3,1.4189977E-4,1.4487862E-3,-2.0705916E-3,5.750356E-4,-1.3891594E-4,1.2693098E-3,-1.0418096E-4,1.8711974E-3,-2.6091975E-3,1.1266301E-3,-1.4992289E-3,3.0077584E-4,1.4802512E-3,1.9255612E-3,-1.5969652E-3],"categories":[],"categories_nodes":[],"categories_segments":[],"categories_sizes":[],"default_left":[0,0,0,0,0,0,0,0,0,0,0,0,0,0,0,0,0,0,0,0,0,0,0,0,0,0,0,0,0,0,0,0,0,0,0,0,0,0,0,0,0,0,0,0,0,0,0,0,0,0,0,0,0,0,0,0,0,0,0,0,0,0,0],"id":10,"left_children":[1,3,5,7,9,11,13,15,17,19,21,23,25,27,29,31,33,35,37,39,41,43,45,47,49,51,53,55,57,59,61,-1,-1,-1,-1,-1,-1,-1,-1,-1,-1,-1,-1,-1,-1,-1,-1,-1,-1,-1,-1,-1,-1,-1,-1,-1,-1,-1,-1,-1,-1,-1,-1],"loss_changes":[1.4181283E0,3.2747847E-1,2.4889052E-1,3.530407E-2,5.1129192E-2,3.9878063E-2,3.6476195E-2,9.474456E-3,9.889632E-3,1.1506796E-2,1.1630975E-2,1.759005E-2,1.38064325E-2,1.1688203E-2,9.711683E-3,5.418062E-3,9.464383E-3,1.0591209E-2,1.560989E-2,1.541996E-2,1.3726965E-2,9.026276E-3,1.0959562E-2,1.0095697E-2,1.2027055E-2,9.366512E-3,9.043291E-3,1.0576202E-2,1.1526436E-2,5.702421E-3,9.482503E-3,0E0,0E0,0E0,0E0,0E0,0E0,0E0,0E0,0E0,0E0,0E0,0E0,0E0,0E0,0E0,0E0,0E0,0E0,0E0,0E0,0E0,0E0,0E0,0E0,0E0,0E0,0E0,0E0,0E0,0E0,0E0,0E0],"parents":[2147483647,0,0,1,1,2,2,3,3,4,4,5,5,6,6,7,7,8,8,9,9,10,10,11,11,12,12,13,13,14,14,15,15,16,16,17,17,18,18,19,19,20,20,21,21,22,22,23,23,24,24,25,25,26,26,27,27,28,28,29,29,30,30],"right_children":[2,4,6,8,10,12,14,16,18,20,22,24,26,28,30,32,34,36,38,40,42,44,46,48,50,52,54,56,58,60,62,-1,-1,-1,-1,-1,-1,-1,-1,-1,-1,-1,-1,-1,-1,-1,-1,-1,-1,-1,-1,-1,-1,-1,-1,-1,-1,-1,-1,-1,-1,-1,-1],"split_conditions":[4.081139E-1,2.6323625E-1,5.392203E-1,1.6190565E-1,3.3237183E-1,4.5910487E-1,6.1542755E-1,6.820508E-2,1.6944264E-1,1.1153997E0,4.916915E-1,1.3316063E0,5.846283E-1,-9.7902924E-1,1.3298659E-1,4.1090602E-1,1.309903E0,1.6353966E-1,4.9967434E-2,1.2889537E0,-8.5926294E-1,9.035E-1,-2.1715537E-1,-8.248204E-1,-3.9328706E-1,6.227416E-1,6.227416E-1,-2.5679347E-1,1.2889537E0,-6.6483694E-1,8.2319003E-1,-3.2861065E-3,4.790289E-5,-2.3906254E-3,-6.051582E-4,-2.3366099E-3,9.034766E-4,4.7502466E-3,-1.5540841E-3,-8.767132E-4,5.3526624E-3,-5.9754015E-3,-1.445558E-3,-2.5756852E-4,-3.0066129E-3,-9.405382E-5,-7.61945E-4,1.4294528E-3,1.4189977E-4,1.4487862E-3,-2.0705916E-3,5.750356E-4,-1.3891594E-4,1.2693098E-3,-1.0418096E-4,1.8711974E-3,-2.6091975E-3,1.1266301E-3,-1.4992289E-3,3.0077584E-4,1.4802512E-3,1.9255612E-3,-1.5969652E-3],"split_indices":[407,407,407,407,407,407,407,390,237,68,290,85,50,2,45,167,102,89,322,85,396,398,64,243,60,292,71,97,51,349,243,0,0,0,0,0,0,0,0,0,0,0,0,0,0,0,0,0,0,0,0,0,0,0,0,0,0,0,0,0,0,0,0],"split_type":[0,0,0,0,0,0,0,0,0,0,0,0,0,0,0,0,0,0,0,0,0,0,0,0,0,0,0,0,0,0,0,0,0,0,0,0,0,0,0,0,0,0,0,0,0,0,0,0,0,0,0,0,0,0,0,0,0,0,0,0,0,0,0],"sum_hessian":[2.1E4,9.354E3,1.1646E4,2.295E3,7.059E3,7.131E3,4.515E3,8.21E2,1.474E3,2.547E3,4.512E3,3.606E3,3.525E3,2.79E3,1.725E3,1.62E2,6.59E2,2.69E2,1.205E3,2.291E3,2.56E2,3.088E3,1.424E3,3.54E3,6.6E1,3.055E3,4.7E2,2.2E1,2.768E3,7.85E2,9.4E2,1.57E2,5E0,6.27E2,3.2E1,2.59E2,1E1,3E0,1.202E3,2.288E3,3E0,6E0,2.5E2,3.077E3,1.1E1,3.16E2,1.108E3,6.1E1,3.479E3,1.1E1,5.5E1,2.859E3,1.96E2,4.16E2,5.4E1,7E0,1.5E1,2.752E3,1.6E1,4.4E1,7.41E2,9.33E2,7E0],"tree_param":{"num_deleted":"0","num_feature":"408","num_nodes":"63","size_leaf_vector":"1"}},{"base_weights":[-4.868615E-6,-7.238633E-3,7.578837E-3,-1.6438931E-2,-4.014557E-3,5.0126566E-3,1.3430589E-2,-2.0617027E-2,-1.2708268E-2,-6.7884037E-3,-1.8927073E-3,3.6972305E-3,8.55673E-3,1.2166039E-2,1.7482575E-2,-2.5903178E-2,-1.883228E-2,-1.1467617E-2,-1.8746551E-2,-7.604246E-3,-3.1667314E-3,-3.1320974E-3,1.0028859E-4,2.0682742E-3,5.7589645E-3,7.101942E-3,1.2403428E-2,1.223144E-2,-2.9821744E-2,1.8519415E-2,6.7758732E-3,-1.9370726E-3,-2.8794648E-3,-2.15846E-3,-1.570208E-3,-1.272787E-3,-4.018046E-4,-2.582098E-3,-1.5203065E-3,-6.3375145E-4,-1.0960256E-3,-3.5082002E-4,2.4077091E-3,-5.547171E-3,-3.0556344E-4,3.5820418E-4,-1.9914303E-4,-2.6735736E-3,2.2069016E-4,7.7911443E-4,2.8580462E-4,9.464592E-4,1.5553067E-4,2.77885E-3,1.0519207E-3,7.3307246E-4,1.282845E-3,-3.4173739E-3,-8.382883E-4,2.025893E-3,1.022169E-3,3.931355E-3,3.5177774E-4],"categories":[],"categories_nodes":[],"categories_segments":[],"categories_sizes":[],"default_left":[0,0,0,0,0,0,0,0,0,0,0,0,0,0,0,0,0,0,0,0,0,0,0,0,0,0,0,0,0,0,0,0,0,0,0,0,0,0,0,0,0,0,0,0,0,0,0,0,0,0,0,0,0,0,0,0,0,0,0,0,0,0,0],"id":11,"left_children":[1,3,5,7,9,11,13,15,17,19,21,23,25,27,29,31,33,35,37,39,41,43,45,47,49,51,53,55,57,59,61,-1,-1,-1,-1,-1,-1,-1,-1,-1,-1,-1,-1,-1,-1,-1,-1,-1,-1,-1,-1,-1,-1,-1,-1,-1,-1,-1,-1,-1,-1,-1,-1],"loss_changes":[1.1521432E0,3.1877577E-1,1.5389848E-1,4.3210328E-2,4.684311E-2,3.3203512E-2,1.5799642E-2,1.1909068E-2,1.0842353E-2,1.016967E-2,1.1145402E-2,1.745551E-2,1.0706842E-2,6.9140494E-3,8.10045E-3,5.6565106E-3,8.155763E-3,1.1468366E-2,5.8744773E-3,1.1897549E-2,6.0011214E-3,1.0964179E-2,1.2613744E-2,1.1666732E-2,1.3507195E-2,1.8358149E-2,1.5013814E-2,6.8751574E-3,8.6732674E-5,9.535879E-3,6.964433E-3,0E0,0E0,0E0,0E0,0E0,0E0,0E0,0E0,0E0,0E0,0E0,0E0,0E0,0E0,0E0,0E0,0E0,0E0,0E0,0E0,0E0,0E0,0E0,0E0,0E0,0E0,0E0,0E0,0E0,0E0,0E0,0E0],"parents":[2147483647,0,0,1,1,2,2,3,3,4,4,5,5,6,6,7,7,8,8,9,9,10,10,11,11,12,12,13,13,14,14,15,15,16,16,17,17,18,18,19,19,20,20,21,21,22,22,23,23,24,24,25,25,26,26,27,27,28,28,29,29,30,30],"right_children":[2,4,6,8,10,12,14,16,18,20,22,24,26,28,30,32,34,36,38,40,42,44,46,48,50,52,54,56,58,60,62,-1,-1,-1,-1,-1,-1,-1,-1,-1,-1,-1,-1,-1,-1,-1,-1,-1,-1,-1,-1,-1,-1,-1,-1,-1,-1,-1,-1,-1,-1,-1,-1],"split_conditions":[4.2728204E-1,2.818461E-1,5.7346237E-1,2.0154461E-1,3.5879782E-1,5.3773147E-1,6.7116404E-1,9.332837E-2,1.6367511E-1,1.2632543E-1,-3.5452466E-2,4.8385596E-1,6.0193545E-1,9.7494465E-1,8.350237E-1,-1.1581576E-1,-7.932984E-3,4.1153622E-1,-1.8720075E-1,7.3614144E-1,4.9595237E-1,2.7924073E-1,-9.673844E-2,1.4273751E-1,1.5085581E-1,2.769238E-1,-6.4758986E-1,-9.8885536E-1,-1.4914067E-1,-6.3683756E-2,6.438076E-1,-1.9370726E-3,-2.8794648E-3,-2.15846E-3,-1.570208E-3,-1.272787E-3,-4.018046E-4,-2.582098E-3,-1.5203065E-3,-6.3375145E-4,-1.0960256E-3,-3.5082002E-4,2.4077091E-3,-5.547171E-3,-3.0556344E-4,3.5820418E-4,-1.9914303E-4,-2.6735736E-3,2.2069016E-4,7.7911443E-4,2.8580462E-4,9.464592E-4,1.5553067E-4,2.77885E-3,1.0519207E-3,7.3307246E-4,1.282845E-3,-3.4173739E-3,-8.382883E-4,2.025893E-3,1.022169E-3,3.931355E-3,3.5177774E-4],"split_indices":[407,407,407,407,407,33,407,407,232,378,36,407,16,209,50,352,167,20,369,324,16,390,250,67,175,105,255,272,0,349,390,0,0,0,0,0,0,0,0,0,0,0,0,0,0,0,0,0,0,0,0,0,0,0,0,0,0,0,0,0,0,0,0],"split_type":[0,0,0,0,0,0,0,0,0,0,0,0,0,0,0,0,0,0,0,0,0,0,0,0,0,0,0,0,0,0,0,0,0,0,0,0,0,0,0,0,0,0,0,0,0,0,0,0,0,0,0,0,0,0,0,0,0,0,0,0,0,0,0],"sum_hessian":[2.1E4,1.0748E4,1.0252E4,2.788E3,7.96E3,7.128E3,3.124E3,1.313E3,1.475E3,3.449E3,4.511E3,5.2E3,1.928E3,2.384E3,7.4E2,3.28E2,9.85E2,1.226E3,2.49E2,2.814E3,6.35E2,2.781E3,1.73E3,2.906E3,2.294E3,1.401E3,5.27E2,2.381E3,3E0,6.74E2,6.6E1,1.03E2,2.25E2,5.21E2,4.64E2,1.048E3,1.78E2,8.1E1,1.68E2,2.045E3,7.69E2,6.28E2,7E0,3E0,2.778E3,6.49E2,1.081E3,1.3E1,2.893E3,1.348E3,9.46E2,9.82E2,4.19E2,5.6E1,4.71E2,2.6E2,2.121E3,2E0,1E0,5.56E2,1.18E2,5E0,6.1E1],"tree_param":{"num_deleted":"0","num_feature":"408","num_nodes":"63","size_leaf_vector":"1"}},{"base_weights":[-4.908646E-6,-7.835627E-3,5.7102707E-3,-1.681286E-2,-5.2684494E-3,2.2949334E-3,1.0061054E-2,-2.2095306E-2,-1.5039477E-2,-8.99276E-3,-3.8614767E-3,5.233075E-5,3.7761221E-3,7.64418E-3,1.2867366E-2,-2.3133248E-2,-1.069514E-2,-1.9406844E-2,-1.3672233E-2,-8.883507E-3,-5.8257347E-3,-4.1475715E-3,3.409095E-3,-1.08527215E-2,4.8784268E-4,4.457179E-3,-3.1201274E-4,-1.4592618E-3,8.07647E-3,7.937075E-3,1.3903211E-2,1.6556388E-3,-2.3435985E-3,-4.5972117E-4,-2.441365E-3,-3.4716425E-3,-1.7915585E-3,-1.701694E-3,-1.1145127E-3,-1.2826169E-3,-7.699751E-4,-4.799216E-4,-9.947755E-5,2.3741955E-3,7.42042E-5,-6.77168E-5,-2.2260442E-3,2.0066625E-3,2.5185585E-5,3.595331E-4,8.642434E-4,4.645438E-5,-1.4719679E-3,2.0067776E-3,-5.751403E-4,8.6954137E-4,2.2606296E-4,3.5808645E-3,6.915467E-4,1.4161505E-3,-6.639383E-4],"categories":[],"categories_nodes":[],"categories_segments":[],"categories_sizes":[],"default_left":[0,0,0,0,0,0,0,0,0,0,0,0,0,0,0,0,0,0,0,0,0,0,0,0,0,0,0,0,0,0,0,0,0,0,0,0,0,0,0,0,0,0,0,0,0,0,0,0,0,0,0,0,0,0,0,0,0,0,0,0,0],"id":12,"left_children":[1,3,5,7,9,11,13,15,17,19,21,23,25,27,29,31,33,35,37,39,-1,41,43,45,47,49,51,53,55,57,59,-1,-1,-1,-1,-1,-1,-1,-1,-1,-1,-1,-1,-1,-1,-1,-1,-1,-1,-1,-1,-1,-1,-1,-1,-1,-1,-1,-1,-1,-1],"loss_changes":[9.399226E-1,2.0412332E-1,1.8038481E-1,1.8122315E-2,3.607939E-2,2.2597447E-2,3.611344E-2,5.5861324E-3,8.560151E-3,9.649634E-3,1.0422826E-2,1.28615955E-2,1.1408471E-2,1.1310101E-2,1.2498856E-2,5.8069825E-3,3.4849076E-3,7.3687434E-3,9.353146E-3,8.703485E-3,0E0,9.887658E-3,1.0285858E-2,1.205723E-2,1.2026298E-2,1.2636907E-2,6.563221E-3,1.2219437E-2,9.847045E-3,1.2024585E-2,1.0913014E-2,0E0,0E0,0E0,0E0,0E0,0E0,0E0,0E0,0E0,0E0,0E0,0E0,0E0,0E0,0E0,0E0,0E0,0E0,0E0,0E0,0E0,0E0,0E0,0E0,0E0,0E0,0E0,0E0,0E0,0E0],"parents":[2147483647,0,0,1,1,2,2,3,3,4,4,5,5,6,6,7,7,8,8,9,9,10,10,11,11,12,12,13,13,14,14,15,15,16,16,17,17,18,18,19,19,21,21,22,22,23,23,24,24,25,25,26,26,27,27,28,28,29,29,30,30],"right_children":[2,4,6,8,10,12,14,16,18,20,22,24,26,28,30,32,34,36,38,40,-1,42,44,46,48,50,52,54,56,58,60,-1,-1,-1,-1,-1,-1,-1,-1,-1,-1,-1,-1,-1,-1,-1,-1,-1,-1,-1,-1,-1,-1,-1,-1,-1,-1,-1,-1,-1,-1],"split_conditions":[4.009491E-1,2.464874E-1,5.181911E-1,1.1900996E-1,3.1050527E-1,4.3770355E-1,5.908626E-1,2.1913092E-1,-2.1351531E-1,7.9720056E-1,6.7350566E-1,-6.679486E-1,8.335181E-1,-8.2010067E-1,5.488974E-1,-7.45397E-1,-3.1054315E-1,-5.1935613E-1,-1.4917822E-1,2.464874E-1,-5.8257347E-3,1.6383566E-1,-5.4011697E-1,6.6739796E-3,-7.4126816E-1,5.5243325E-1,1.0653597E0,-6.503748E-1,9.2659867E-1,3.120871E-1,4.4596386E-1,1.6556388E-3,-2.3435985E-3,-4.5972117E-4,-2.441365E-3,-3.4716425E-3,-1.7915585E-3,-1.701694E-3,-1.1145127E-3,-1.2826169E-3,-7.699751E-4,-4.799216E-4,-9.947755E-5,2.3741955E-3,7.42042E-5,-6.77168E-5,-2.2260442E-3,2.0066625E-3,2.5185585E-5,3.595331E-4,8.642434E-4,4.645438E-5,-1.4719679E-3,2.0067776E-3,-5.751403E-4,8.6954137E-4,2.2606296E-4,3.5808645E-3,6.915467E-4,1.4161505E-3,-6.639383E-4],"split_indices":[407,407,407,407,407,407,407,356,131,285,346,396,34,53,373,176,345,123,133,50,0,174,324,115,145,237,240,325,51,67,256,0,0,0,0,0,0,0,0,0,0,0,0,0,0,0,0,0,0,0,0,0,0,0,0,0,0,0,0,0,0],"split_type":[0,0,0,0,0,0,0,0,0,0,0,0,0,0,0,0,0,0,0,0,0,0,0,0,0,0,0,0,0,0,0,0,0,0,0,0,0,0,0,0,0,0,0,0,0,0,0,0,0,0,0,0,0,0,0,0,0,0,0,0,0],"sum_hessian":[2.1E4,8.86E3,1.214E4,1.969E3,6.891E3,6.802E3,5.338E3,4.92E2,1.477E3,1.888E3,5.003E3,2.706E3,4.096E3,2.87E3,2.468E3,4.5E2,4.2E1,3.49E2,1.128E3,1.885E3,3E0,4.814E3,1.89E2,1.03E2,2.603E3,3.511E3,5.85E2,1.3E2,2.74E3,4.3E2,2.038E3,3E0,4.47E2,3E1,1.2E1,2.9E1,3.2E2,4.83E2,6.45E2,4.33E2,1.452E3,3.989E3,8.25E2,2.1E1,1.68E2,5.5E1,4.8E1,3E1,2.573E3,2.913E3,5.98E2,5.56E2,2.9E1,2.1E1,1.09E2,2.476E3,2.64E2,1.4E1,4.16E2,2.013E3,2.5E1],"tree_param":{"num_deleted":"0","num_feature":"408","num_nodes":"61","size_leaf_vector":"1"}},{"base_weights":[-4.9219807E-6,-7.920723E-3,4.5894478E-3,-1.5572348E-2,-5.5786874E-3,1.37217E-3,8.8023115E-3,-1.9893056E-2,-1.3940651E-2,-8.451855E-3,-4.227912E-3,-3.3365304E-4,3.157769E-3,6.5766643E-3,1.1443507E-2,-2.679031E-2,-1.8179413E-2,-1.4051081E-2,3.9037872E-2,-7.936721E-3,-1.8898487E-2,-4.181738E-3,-4.954083E-2,-2.584667E-4,-3.6456585E-2,2.7211858E-3,1.0705156E-2,6.944026E-3,-4.962673E-3,9.831984E-3,1.4002077E-2,-2.937231E-3,1.0233991E-3,2.156202E-3,-1.8434577E-3,-1.25973E-3,-1.8257651E-3,4.6807784E-3,1.1749029E-3,-8.30657E-4,4.4180537E-4,-1.366699E-3,-4.5574466E-3,-4.699373E-4,-3.935065E-5,-1.3169142E-3,-5.727501E-3,1.4134663E-3,-4.7089925E-5,-4.9687675E-3,2.1577951E-4,-1.6410713E-3,2.8364512E-4,-2.5813535E-3,1.21559E-3,7.3778565E-4,-6.797651E-5,-2.0227614E-3,1.8448399E-4,1.4523364E-3,8.293457E-4,1.1735638E-3,1.7674428E-3],"categories":[],"categories_nodes":[],"categories_segments":[],"categories_sizes":[],"default_left":[0,0,0,0,0,0,0,0,0,0,0,0,0,0,0,0,0,0,0,0,0,0,0,0,0,0,0,0,0,0,0,0,0,0,0,0,0,0,0,0,0,0,0,0,0,0,0,0,0,0,0,0,0,0,0,0,0,0,0,0,0,0,0],"id":13,"left_children":[1,3,5,7,9,11,13,15,17,19,21,23,25,27,29,31,33,35,37,39,41,43,45,47,49,51,53,55,57,59,61,-1,-1,-1,-1,-1,-1,-1,-1,-1,-1,-1,-1,-1,-1,-1,-1,-1,-1,-1,-1,-1,-1,-1,-1,-1,-1,-1,-1,-1,-1,-1,-1],"loss_changes":[7.638032E-1,1.3813299E-1,1.8010637E-1,1.2462169E-2,2.2889346E-2,2.2955079E-2,3.3748865E-2,5.3399354E-3,8.241832E-3,1.0010108E-2,8.20373E-3,1.046057E-2,1.2103289E-2,1.3281688E-2,1.0706365E-2,9.477876E-3,4.433438E-3,7.799566E-3,8.61492E-5,8.266211E-3,1.1658002E-2,7.875174E-3,3.709579E-4,1.1772184E-2,4.194499E-3,7.725211E-3,1.096262E-2,1.0023221E-2,1.0117195E-2,1.1550739E-2,8.232251E-3,0E0,0E0,0E0,0E0,0E0,0E0,0E0,0E0,0E0,0E0,0E0,0E0,0E0,0E0,0E0,0E0,0E0,0E0,0E0,0E0,0E0,0E0,0E0,0E0,0E0,0E0,0E0,0E0,0E0,0E0,0E0,0E0],"parents":[2147483647,0,0,1,1,2,2,3,3,4,4,5,5,6,6,7,7,8,8,9,9,10,10,11,11,12,12,13,13,14,14,15,15,16,16,17,17,18,18,19,19,20,20,21,21,22,22,23,23,24,24,25,25,26,26,27,27,28,28,29,29,30,30],"right_children":[2,4,6,8,10,12,14,16,18,20,22,24,26,28,30,32,34,36,38,40,42,44,46,48,50,52,54,56,58,60,62,-1,-1,-1,-1,-1,-1,-1,-1,-1,-1,-1,-1,-1,-1,-1,-1,-1,-1,-1,-1,-1,-1,-1,-1,-1,-1,-1,-1,-1,-1,-1,-1],"split_conditions":[3.828045E-1,2.3513539E-1,5.090723E-1,1.1900996E-1,3.065972E-1,4.3770355E-1,5.86117E-1,6.820508E-2,7.1747863E-1,1.3823849E0,1.2917137E0,1.2727056E0,6.0705316E-1,5.632648E-1,1.5096292E-1,6.1813545E-1,-8.37827E-1,8.356413E-2,-3.463533E-1,9.513585E-1,2.5175714E-1,2.5674587E-1,3.541799E-1,2.3038988E-1,1.9472232E-1,3.5749513E-1,-1.1041793E0,1.0865506E0,-9.429337E-2,4.784591E-1,5.884433E-1,-2.937231E-3,1.0233991E-3,2.156202E-3,-1.8434577E-3,-1.25973E-3,-1.8257651E-3,4.6807784E-3,1.1749029E-3,-8.30657E-4,4.4180537E-4,-1.366699E-3,-4.5574466E-3,-4.699373E-4,-3.935065E-5,-1.3169142E-3,-5.727501E-3,1.4134663E-3,-4.7089925E-5,-4.9687675E-3,2.1577951E-4,-1.6410713E-3,2.8364512E-4,-2.5813535E-3,1.21559E-3,7.3778565E-4,-6.797651E-5,-2.0227614E-3,1.8448399E-4,1.4523364E-3,8.293457E-4,1.1735638E-3,1.7674428E-3],"split_indices":[407,407,407,407,407,407,407,203,164,51,359,205,33,141,31,364,59,215,0,206,289,89,0,339,270,390,255,68,391,271,288,0,0,0,0,0,0,0,0,0,0,0,0,0,0,0,0,0,0,0,0,0,0,0,0,0,0,0,0,0,0,0,0],"split_type":[0,0,0,0,0,0,0,0,0,0,0,0,0,0,0,0,0,0,0,0,0,0,0,0,0,0,0,0,0,0,0,0,0,0,0,0,0,0,0,0,0,0,0,0,0,0,0,0,0,0,0,0,0,0,0,0,0,0,0,0,0,0,0],"sum_hessian":[2.1E4,7.712E3,1.3288E4,1.806E3,5.906E3,7.535E3,5.753E3,4.92E2,1.314E3,1.887E3,4.019E3,3.854E3,3.681E3,3.124E3,2.629E3,9.5E1,3.97E2,1.312E3,2E0,1.8E3,8.7E1,4.016E3,3E0,3.847E3,7E0,3.481E3,2E2,3.028E3,9.6E1,1.616E3,1.013E3,8.9E1,6E0,2E0,3.95E2,9.78E2,3.34E2,1E0,1E0,1.748E3,5.2E1,7.4E1,1.3E1,3.533E3,4.83E2,1E0,2E0,5.5E1,3.792E3,5E0,2E0,2E1,3.461E3,7E0,1.93E2,2.865E3,1.63E2,2.9E1,6.7E1,3.97E2,1.219E3,6.29E2,3.84E2],"tree_param":{"num_deleted":"0","num_feature":"408","num_nodes":"63","size_leaf_vector":"1"}},{"base_weights":[-5.1322872E-6,-6.3106758E-3,4.6729045E-3,-1.3637428E-2,-4.2407196E-3,2.394716E-3,8.946654E-3,-1.7906997E-2,-1.2204049E-2,-6.656343E-3,-2.7110947E-3,7.18864E-4,4.1426388E-3,8.09665E-3,1.3972882E-2,-1.4304856E-2,-2.0710494E-2,-1.26142455E-2,1.1387537E-3,-3.0358343E-3,-7.4884365E-3,-2.3289882E-3,-8.172759E-3,-5.07144E-3,1.3129514E-3,3.6736396E-3,1.0063617E-2,8.500422E-3,2.2066609E-4,1.5419596E-2,3.543846E-3,-1.5342206E-3,1.9303756E-3,-2.6963062E-3,-1.6750087E-3,-1.2399972E-3,-3.920611E-3,3.2393725E-3,-4.500312E-4,1.2278862E-3,-4.1626385E-4,-7.653924E-4,1.5558241E-3,-4.8268234E-4,-1.3114436E-4,2.8052633E-3,-9.484171E-4,-1.7126895E-5,-1.0825297E-3,-2.2421058E-3,1.436954E-4,2.4147144E-4,6.512059E-4,2.1617697E-3,7.2323094E-4,8.2697655E-4,2.0634294E-3,-9.230667E-4,6.401719E-4,3.0283288E-3,1.4405726E-3,1.7764227E-3,-2.3152698E-4],"categories":[],"categories_nodes":[],"categories_segments":[],"categories_sizes":[],"default_left":[0,0,0,0,0,0,0,0,0,0,0,0,0,0,0,0,0,0,0,0,0,0,0,0,0,0,0,0,0,0,0,0,0,0,0,0,0,0,0,0,0,0,0,0,0,0,0,0,0,0,0,0,0,0,0,0,0,0,0,0,0,0,0],"id":14,"left_children":[1,3,5,7,9,11,13,15,17,19,21,23,25,27,29,31,33,35,37,39,41,43,45,47,49,51,53,55,57,59,61,-1,-1,-1,-1,-1,-1,-1,-1,-1,-1,-1,-1,-1,-1,-1,-1,-1,-1,-1,-1,-1,-1,-1,-1,-1,-1,-1,-1,-1,-1,-1,-1],"loss_changes":[6.1950785E-1,1.3560253E-1,1.1737046E-1,1.1837721E-2,2.5758252E-2,2.3038577E-2,1.7796397E-2,4.6823323E-3,8.103713E-3,8.123353E-3,8.898448E-3,1.3824926E-2,1.06542185E-2,1.1408344E-2,9.073496E-3,7.931352E-3,6.358117E-3,7.684633E-3,8.07698E-3,8.800243E-3,8.502103E-3,1.0147598E-2,1.3520341E-2,1.0543031E-2,1.0756792E-2,1.2737595E-2,9.068761E-3,9.381592E-3,1.03408685E-2,7.565841E-3,6.2900437E-3,0E0,0E0,0E0,0E0,0E0,0E0,0E0,0E0,0E0,0E0,0E0,0E0,0E0,0E0,0E0,0E0,0E0,0E0,0E0,0E0,0E0,0E0,0E0,0E0,0E0,0E0,0E0,0E0,0E0,0E0,0E0,0E0],"parents":[2147483647,0,0,1,1,2,2,3,3,4,4,5,5,6,6,7,7,8,8,9,9,10,10,11,11,12,12,13,13,14,14,15,15,16,16,17,17,18,18,19,19,20,20,21,21,22,22,23,23,24,24,25,25,26,26,27,27,28,28,29,29,30,30],"right_children":[2,4,6,8,10,12,14,16,18,20,22,24,26,28,30,32,34,36,38,40,42,44,46,48,50,52,54,56,58,60,62,-1,-1,-1,-1,-1,-1,-1,-1,-1,-1,-1,-1,-1,-1,-1,-1,-1,-1,-1,-1,-1,-1,-1,-1,-1,-1,-1,-1,-1,-1,-1,-1],"split_conditions":[4.0215874E-1,2.464874E-1,5.4685026E-1,1.1900996E-1,3.2883596E-1,4.5910487E-1,6.789802E-1,-3.9336722E-2,7.1104187E-1,-2.3924026E-1,1.0729127E0,-5.523862E-1,6.0193545E-1,3.8995704E-1,8.350237E-1,3.922955E-1,-1.9203302E-1,5.3112495E-1,1.06169164E-1,-4.7130278E-1,1.4847406E0,-5.021379E-1,-7.616385E-1,1.6120234E-1,1.8284172E-1,3.5838082E-1,-2.2911257E-1,1.309903E0,1.4887218E-1,-6.990926E-1,1.5720226E-1,-1.5342206E-3,1.9303756E-3,-2.6963062E-3,-1.6750087E-3,-1.2399972E-3,-3.920611E-3,3.2393725E-3,-4.500312E-4,1.2278862E-3,-4.1626385E-4,-7.653924E-4,1.5558241E-3,-4.8268234E-4,-1.3114436E-4,2.8052633E-3,-9.484171E-4,-1.7126895E-5,-1.0825297E-3,-2.2421058E-3,1.436954E-4,2.4147144E-4,6.512059E-4,2.1617697E-3,7.2323094E-4,8.2697655E-4,2.0634294E-3,-9.230667E-4,6.401719E-4,3.0283288E-3,1.4405726E-3,1.7764227E-3,-2.3152698E-4],"split_indices":[407,407,407,407,407,407,16,386,211,251,68,379,16,124,50,203,62,203,373,110,136,272,212,214,67,393,221,153,393,204,231,0,0,0,0,0,0,0,0,0,0,0,0,0,0,0,0,0,0,0,0,0,0,0,0,0,0,0,0,0,0,0,0],"split_type":[0,0,0,0,0,0,0,0,0,0,0,0,0,0,0,0,0,0,0,0,0,0,0,0,0,0,0,0,0,0,0,0,0,0,0,0,0,0,0,0,0,0,0,0,0,0,0,0,0,0,0,0,0,0,0,0,0,0,0,0,0,0,0],"sum_hessian":[2.1E4,8.944E3,1.2056E4,1.969E3,6.975E3,7.865E3,4.191E3,4.92E2,1.477E3,2.703E3,4.272E3,4.016E3,3.849E3,3.587E3,6.04E2,2.18E2,2.74E2,1.433E3,4.4E1,5.06E2,2.197E3,3.994E3,2.78E2,3.73E2,3.643E3,3.568E3,2.81E2,3.412E3,1.75E2,5.3E2,7.4E1,2.12E2,6E0,1.04E2,1.7E2,1.423E3,1E1,6E0,3.8E1,3.4E1,4.72E2,2.182E3,1.5E1,1.155E3,2.839E3,9E0,2.69E2,2.02E2,1.71E2,1.8E1,3.625E3,2.473E3,1.095E3,5.4E1,2.27E2,3.35E3,6.2E1,6.9E1,1.06E2,3.2E1,4.98E2,2.1E1,5.3E1],"tree_param":{"num_deleted":"0","num_feature":"408","num_nodes":"63","size_leaf_vector":"1"}},{"base_weights":[-4.347081E-6,-6.4406344E-3,3.7313055E-3,-1.2644026E-2,-4.5418753E-3,1.1204175E-3,7.150131E-3,-1.5243598E-2,-1.0720883E-2,-7.162032E-3,-3.5323016E-3,7.984952E-4,7.4247452E-3,5.6699854E-3,1.0168446E-2,-1.57596E-2,4.7912635E-3,8.065842E-3,-1.1133994E-2,-7.0491494E-3,-5.16253E-3,-3.8348066E-3,2.2994138E-3,-6.682265E-4,2.0302162E-3,3.705504E-2,6.1409976E-3,-7.7527743E-3,5.898153E-3,1.0788569E-2,2.5084196E-3,-1.9531732E-3,-1.2808241E-3,-1.4359688E-3,2.5378184E-3,-6.932723E-4,5.1717227E-3,-1.000325E-3,-1.811216E-3,-6.038231E-4,-1.1522807E-3,-3.7925603E-4,-4.56823E-3,5.99976E-4,-8.845009E-4,2.634913E-3,-7.673806E-5,-1.5061215E-3,2.1622174E-4,1.0383874E-4,4.2516193E-3,1.3323344E-3,2.0777281E-4,-1.8371763E-3,3.7721757E-4,6.3977105E-4,-1.3790599E-6,1.1329928E-3,7.946895E-5,4.9715955E-4,-2.2505773E-3],"categories":[],"categories_nodes":[],"categories_segments":[],"categories_sizes":[],"default_left":[0,0,0,0,0,0,0,0,0,0,0,0,0,0,0,0,0,0,0,0,0,0,0,0,0,0,0,0,0,0,0,0,0,0,0,0,0,0,0,0,0,0,0,0,0,0,0,0,0,0,0,0,0,0,0,0,0,0,0,0,0],"id":15,"left_children":[1,3,5,7,9,11,13,15,17,19,21,23,25,27,29,31,33,35,37,39,-1,41,43,45,47,49,51,53,55,57,59,-1,-1,-1,-1,-1,-1,-1,-1,-1,-1,-1,-1,-1,-1,-1,-1,-1,-1,-1,-1,-1,-1,-1,-1,-1,-1,-1,-1,-1,-1],"loss_changes":[5.0496644E-1,9.079206E-2,1.1861187E-1,8.870393E-3,1.5600152E-2,1.5288408E-2,2.5648624E-2,7.994443E-3,8.176774E-3,7.877506E-3,7.53456E-3,1.2956427E-2,1.3694288E-2,1.187671E-2,8.960232E-3,8.066103E-3,8.249604E-3,1.5416827E-2,7.867157E-3,7.3428154E-3,0E0,6.9973767E-3,8.754331E-3,8.790882E-3,8.826803E-3,2.906235E-3,1.0245016E-2,8.024216E-3,1.1219889E-2,9.458959E-3,8.922744E-3,0E0,0E0,0E0,0E0,0E0,0E0,0E0,0E0,0E0,0E0,0E0,0E0,0E0,0E0,0E0,0E0,0E0,0E0,0E0,0E0,0E0,0E0,0E0,0E0,0E0,0E0,0E0,0E0,0E0,0E0],"parents":[2147483647,0,0,1,1,2,2,3,3,4,4,5,5,6,6,7,7,8,8,9,9,10,10,11,11,12,12,13,13,14,14,15,15,16,16,17,17,18,18,19,19,21,21,22,22,23,23,24,24,25,25,26,26,27,27,28,28,29,29,30,30],"right_children":[2,4,6,8,10,12,14,16,18,20,22,24,26,28,30,32,34,36,38,40,-1,42,44,46,48,50,52,54,56,58,60,-1,-1,-1,-1,-1,-1,-1,-1,-1,-1,-1,-1,-1,-1,-1,-1,-1,-1,-1,-1,-1,-1,-1,-1,-1,-1,-1,-1,-1,-1],"split_conditions":[3.828045E-1,2.3513539E-1,5.090723E-1,1.8926212E-1,3.001768E-1,5.80348E-1,6.092863E-1,3.7871033E-1,-5.349043E-1,7.9720056E-1,4.4534448E-1,4.313762E-1,-7.8302217E-1,-8.773059E-1,6.9856834E-1,-1.8786508E-1,1.89045E-2,7.087714E-1,4.8739737E-1,5.173136E-1,-5.16253E-3,1.2917137E0,4.2602673E-1,1.6944264E-1,3.5749513E-1,-5.091474E-2,-1.7627235E-1,1.2151878E-1,8.8601834E-1,9.188717E-1,4.910265E-2,-1.9531732E-3,-1.2808241E-3,-1.4359688E-3,2.5378184E-3,-6.932723E-4,5.1717227E-3,-1.000325E-3,-1.811216E-3,-6.038231E-4,-1.1522807E-3,-3.7925603E-4,-4.56823E-3,5.99976E-4,-8.845009E-4,2.634913E-3,-7.673806E-5,-1.5061215E-3,2.1622174E-4,1.0383874E-4,4.2516193E-3,1.3323344E-3,2.0777281E-4,-1.8371763E-3,3.7721757E-4,6.3977105E-4,-1.3790599E-6,1.1329928E-3,7.946895E-5,4.9715955E-4,-2.2505773E-3],"split_indices":[407,407,407,220,407,16,390,33,213,285,334,407,255,19,226,55,163,171,326,175,0,359,266,356,390,42,234,401,51,34,154,0,0,0,0,0,0,0,0,0,0,0,0,0,0,0,0,0,0,0,0,0,0,0,0,0,0,0,0,0,0],"split_type":[0,0,0,0,0,0,0,0,0,0,0,0,0,0,0,0,0,0,0,0,0,0,0,0,0,0,0,0,0,0,0,0,0,0,0,0,0,0,0,0,0,0,0,0,0,0,0,0,0,0,0,0,0,0,0,0,0,0,0,0,0],"sum_hessian":[2.1E4,7.712E3,1.3288E4,1.806E3,5.906E3,7.535E3,5.753E3,7.65E2,1.041E3,1.641E3,4.265E3,7.17E3,3.65E2,3.862E3,1.891E3,7.46E2,1.9E1,2.2E1,1.019E3,1.638E3,3E0,4.055E3,2.1E2,3.273E3,3.897E3,1.4E1,3.51E2,6.4E1,3.798E3,1.749E3,1.42E2,3.25E2,4.21E2,1E1,9E0,1.7E1,5E0,8.79E2,1.4E2,1.338E3,3E2,4.052E3,3E0,1.58E2,5.2E1,1.1E1,3.262E3,2.9E1,3.868E3,2E0,1.2E1,1.26E2,2.25E2,3.3E1,3.1E1,3.502E3,2.96E2,1.659E3,9E1,1.3E2,1.2E1],"tree_param":{"num_deleted":"0","num_feature":"408","num_nodes":"61","size_leaf_vector":"1"}},{"base_weights":[-4.236965E-6,-4.5996853E-3,4.239367E-3,-1.0159507E-2,-2.7222016E-3,2.476014E-3,7.5717187E-3,-1.2953542E-2,-8.13367E-3,-4.5047724E-3,-1.4122246E-3,2.0540548E-3,7.913156E-3,7.0274975E-3,1.318077E-2,-1.3453285E-2,7.5920555E-3,-1.2502518E-2,-6.8124044E-3,-4.421445E-3,-3.7126645E-2,-1.252981E-3,-1.5354586E-2,1.1690392E-3,4.0443335E-3,2.3950692E-2,6.247814E-3,8.613468E-3,5.0842175E-3,1.5531465E-2,-1.1000586E-3,-1.3652317E-3,3.0596382E-3,2.4718225E-3,-8.853107E-4,-1.0903729E-3,-2.5789342E-3,-6.3791673E-4,-2.374387E-3,-2.012302E-5,-5.044676E-4,-4.217095E-3,-9.082556E-5,-1.9458581E-4,2.2640626E-4,-4.274888E-3,-1.0537967E-3,1.2781589E-4,-1.9644245E-3,2.9814604E-4,1.1030826E-3,3.8765308E-3,9.924277E-4,2.7067933E-4,1.1777946E-3,7.8921404E-4,1.3581454E-3,5.371558E-4,-1.2669883E-3,-3.7492055E-3,1.6036885E-3,-9.8954E-4,9.744227E-4],"categories":[],"categories_nodes":[],"categories_segments":[],"categories_sizes":[],"default_left":[0,0,0,0,0,0,0,0,0,0,0,0,0,0,0,0,0,0,0,0,0,0,0,0,0,0,0,0,0,0,0,0,0,0,0,0,0,0,0,0,0,0,0,0,0,0,0,0,0,0,0,0,0,0,0,0,0,0,0,0,0,0,0],"id":16,"left_children":[1,3,5,7,9,11,13,15,17,19,21,23,25,27,29,31,33,35,37,39,41,43,45,47,49,51,53,55,57,59,61,-1,-1,-1,-1,-1,-1,-1,-1,-1,-1,-1,-1,-1,-1,-1,-1,-1,-1,-1,-1,-1,-1,-1,-1,-1,-1,-1,-1,-1,-1,-1,-1],"loss_changes":[4.0956545E-1,1.0522352E-1,6.414254E-2,1.4299959E-2,1.7598156E-2,1.6369294E-2,1.1439949E-2,1.1067867E-2,8.446448E-3,8.515313E-3,9.632103E-3,1.1671776E-2,1.3578266E-2,1.0576725E-2,1.1195857E-2,9.562045E-3,7.541542E-3,6.9838464E-3,8.188818E-3,8.378692E-3,1.4232714E-3,1.0480545E-2,6.014961E-3,1.04496395E-2,1.51156485E-2,9.589486E-3,9.113058E-3,6.687224E-3,7.980429E-3,8.265801E-3,4.674624E-3,0E0,0E0,0E0,0E0,0E0,0E0,0E0,0E0,0E0,0E0,0E0,0E0,0E0,0E0,0E0,0E0,0E0,0E0,0E0,0E0,0E0,0E0,0E0,0E0,0E0,0E0,0E0,0E0,0E0,0E0,0E0,0E0],"parents":[2147483647,0,0,1,1,2,2,3,3,4,4,5,5,6,6,7,7,8,8,9,9,10,10,11,11,12,12,13,13,14,14,15,15,16,16,17,17,18,18,19,19,20,20,21,21,22,22,23,23,24,24,25,25,26,26,27,27,28,28,29,29,30,30],"right_children":[2,4,6,8,10,12,14,16,18,20,22,24,26,28,30,32,34,36,38,40,42,44,46,48,50,52,54,56,58,60,62,-1,-1,-1,-1,-1,-1,-1,-1,-1,-1,-1,-1,-1,-1,-1,-1,-1,-1,-1,-1,-1,-1,-1,-1,-1,-1,-1,-1,-1,-1,-1,-1],"split_conditions":[4.1825625E-1,2.7272728E-1,5.5578303E-1,1.8284172E-1,3.4977204E-1,5.9393317E-1,7.2187585E-1,7.50928E-1,-2.0990777E-1,9.936062E-1,1.3823849E0,2.9673E-1,-6.4758986E-1,-8.8933244E-2,8.350237E-1,4.7779182E-1,-1.2134272E-1,4.4226295E-1,4.9364316E-1,-3.6005986E-1,8.564008E-1,4.331943E-1,-2.037786E-1,1.2507735E0,5.356844E-1,-6.307985E-1,2.210736E-1,6.370177E-1,1.2310684E0,2.9189542E-1,-7.801197E-2,-1.3652317E-3,3.0596382E-3,2.4718225E-3,-8.853107E-4,-1.0903729E-3,-2.5789342E-3,-6.3791673E-4,-2.374387E-3,-2.012302E-5,-5.044676E-4,-4.217095E-3,-9.082556E-5,-1.9458581E-4,2.2640626E-4,-4.274888E-3,-1.0537967E-3,1.2781589E-4,-1.9644245E-3,2.9814604E-4,1.1030826E-3,3.8765308E-3,9.924277E-4,2.7067933E-4,1.1777946E-3,7.8921404E-4,1.3581454E-3,5.371558E-4,-1.2669883E-3,-3.7492055E-3,1.6036885E-3,-9.8954E-4,9.744227E-4],"split_indices":[407,407,407,407,407,16,407,364,131,393,68,393,255,158,50,287,250,135,252,252,1,240,63,85,271,376,133,223,51,50,63,0,0,0,0,0,0,0,0,0,0,0,0,0,0,0,0,0,0,0,0,0,0,0,0,0,0,0,0,0,0,0,0],"split_type":[0,0,0,0,0,0,0,0,0,0,0,0,0,0,0,0,0,0,0,0,0,0,0,0,0,0,0,0,0,0,0,0,0,0,0,0,0,0,0,0,0,0,0,0,0,0,0,0,0,0,0,0,0,0,0,0,0,0,0,0,0,0,0],"sum_hessian":[2.1E4,1.0082E4,1.0918E4,2.544E3,7.538E3,7.141E3,3.777E3,1.067E3,1.477E3,3.192E3,4.346E3,6.628E3,5.13E2,3.445E3,3.32E2,1.042E3,2.5E1,3.41E2,1.136E3,3.185E3,7E0,4.298E3,4.8E1,4.589E3,2.039E3,4.7E1,4.66E2,1.895E3,1.55E3,2.85E2,4.7E1,1.038E3,4E0,1.2E1,1.3E1,3.06E2,3.5E1,1.109E3,2.7E1,4.1E2,2.775E3,6E0,1E0,3.591E3,7.07E2,6E0,4.2E1,4.566E3,2.3E1,1.771E3,2.68E2,2.2E1,2.5E1,2.85E2,1.81E2,1.657E3,2.38E2,1.526E3,2.4E1,2E0,2.83E2,2.6E1,2.1E1],"tree_param":{"num_deleted":"0","num_feature":"408","num_nodes":"63","size_leaf_vector":"1"}},{"base_weights":[-4.2127526E-6,-5.2407165E-3,3.0350797E-3,-1.0280934E-2,-3.6979849E-3,9.059995E-4,5.823003E-3,-1.9569332E-2,-9.822404E-3,-8.3664255E-3,-3.228626E-3,6.514195E-4,6.663531E-3,4.579831E-3,8.358179E-3,-8.088186E-3,-2.3030812E-2,-9.945401E-3,2.176782E-2,-2.0252096E-2,-6.371689E-3,-3.8447126E-3,-3.2919933E-4,-3.897915E-4,1.7767841E-3,-9.523896E-3,8.564612E-3,2.9574633E-3,6.2082405E-3,-7.3903147E-3,8.641713E-3,5.7704916E-4,-1.0718548E-3,-1.0089821E-3,-2.6452495E-3,-4.6611074E-4,-1.0714313E-3,1.7109206E-4,3.6382766E-3,-2.4116081E-3,2.6874937E-4,1.1864844E-3,-7.308353E-4,-4.9121474E-4,-1.9194132E-4,2.071754E-3,-7.3840165E-5,-3.2136257E-5,-3.2357255E-3,2.373692E-4,-1.6673355E-4,-4.515435E-5,-3.1252385E-3,2.6268559E-3,6.464677E-4,3.1434037E-4,-2.1077262E-3,7.69722E-4,3.71251E-4,1.16662486E-4,-3.1289216E-3,1.8772128E-3,8.1934454E-4],"categories":[],"categories_nodes":[],"categories_segments":[],"categories_sizes":[],"default_left":[0,0,0,0,0,0,0,0,0,0,0,0,0,0,0,0,0,0,0,0,0,0,0,0,0,0,0,0,0,0,0,0,0,0,0,0,0,0,0,0,0,0,0,0,0,0,0,0,0,0,0,0,0,0,0,0,0,0,0,0,0,0,0],"id":17,"left_children":[1,3,5,7,9,11,13,15,17,19,21,23,25,27,29,31,33,35,37,39,41,43,45,47,49,51,53,55,57,59,61,-1,-1,-1,-1,-1,-1,-1,-1,-1,-1,-1,-1,-1,-1,-1,-1,-1,-1,-1,-1,-1,-1,-1,-1,-1,-1,-1,-1,-1,-1,-1,-1],"loss_changes":[3.3425236E-1,5.9935987E-2,7.88744E-2,7.5038224E-3,1.2916252E-2,1.1041572E-2,1.8096402E-2,3.1520315E-3,6.9151074E-3,1.2649994E-2,9.58937E-3,8.458326E-3,9.898345E-3,1.0187216E-2,8.512095E-3,8.273716E-4,2.5670156E-3,6.93056E-3,1.9896654E-3,6.889954E-3,7.995443E-3,9.090684E-3,8.128154E-3,8.192723E-3,7.1356045E-3,6.688257E-3,1.0462839E-2,8.72276E-3,7.132329E-3,6.9895517E-3,8.288175E-3,0E0,0E0,0E0,0E0,0E0,0E0,0E0,0E0,0E0,0E0,0E0,0E0,0E0,0E0,0E0,0E0,0E0,0E0,0E0,0E0,0E0,0E0,0E0,0E0,0E0,0E0,0E0,0E0,0E0,0E0,0E0,0E0],"parents":[2147483647,0,0,1,1,2,2,3,3,4,4,5,5,6,6,7,7,8,8,9,9,10,10,11,11,12,12,13,13,14,14,15,15,16,16,17,17,18,18,19,19,20,20,21,21,22,22,23,23,24,24,25,25,26,26,27,27,28,28,29,29,30,30],"right_children":[2,4,6,8,10,12,14,16,18,20,22,24,26,28,30,32,34,36,38,40,42,44,46,48,50,52,54,56,58,60,62,-1,-1,-1,-1,-1,-1,-1,-1,-1,-1,-1,-1,-1,-1,-1,-1,-1,-1,-1,-1,-1,-1,-1,-1,-1,-1,-1,-1,-1,-1,-1,-1],"split_conditions":[3.828045E-1,2.3513539E-1,5.090723E-1,4.9967434E-2,2.1261747E-1,6.044478E-1,6.092863E-1,2.1045569E-1,5.075835E-1,-3.4443787E-1,1.2632543E-1,4.3770355E-1,-6.342502E-1,2.1746472E-1,3.6037964E-1,-6.772463E-2,-7.7481374E-2,-2.0436198E-1,8.884276E-2,4.8525432E-1,-2.4942762E-1,2.1292043E-1,-4.639713E-1,1.2727056E0,5.216292E-1,-2.066612E-2,-3.9676717E-1,1.2889537E0,2.0078138E-1,-1.8292858E-1,4.126733E-1,5.7704916E-4,-1.0718548E-3,-1.0089821E-3,-2.6452495E-3,-4.6611074E-4,-1.0714313E-3,1.7109206E-4,3.6382766E-3,-2.4116081E-3,2.6874937E-4,1.1864844E-3,-7.308353E-4,-4.9121474E-4,-1.9194132E-4,2.071754E-3,-7.3840165E-5,-3.2136257E-5,-3.2357255E-3,2.373692E-4,-1.6673355E-4,-4.515435E-5,-3.1252385E-3,2.6268559E-3,6.464677E-4,3.1434037E-4,-2.1077262E-3,7.69722E-4,3.71251E-4,1.16662486E-4,-3.1289216E-3,1.8772128E-3,8.1934454E-4],"split_indices":[407,407,407,390,50,33,390,51,16,166,378,407,43,238,254,9,160,111,0,161,64,179,59,205,343,222,377,51,156,165,322,0,0,0,0,0,0,0,0,0,0,0,0,0,0,0,0,0,0,0,0,0,0,0,0,0,0,0,0,0,0,0,0],"split_type":[0,0,0,0,0,0,0,0,0,0,0,0,0,0,0,0,0,0,0,0,0,0,0,0,0,0,0,0,0,0,0,0,0,0,0,0,0,0,0,0,0,0,0,0,0,0,0,0,0,0,0,0,0,0,0,0,0,0,0,0,0,0,0],"sum_hessian":[2.1E4,7.712E3,1.3288E4,1.806E3,5.906E3,7.535E3,5.753E3,8.3E1,1.723E3,5.38E2,5.368E3,7.217E3,3.18E2,3.862E3,1.891E3,2E1,6.3E1,1.717E3,6E0,7.6E1,4.62E2,4.427E3,9.41E2,3.749E3,3.468E3,3.3E1,2.85E2,1.936E3,1.926E3,3.3E1,1.858E3,3E0,1.7E1,1.4E1,4.9E1,2.19E2,1.498E3,3E0,3E0,6.5E1,1.1E1,2.2E1,4.4E2,2.847E3,1.58E3,1.7E1,9.24E2,3.742E3,7E0,2.956E3,5.12E2,2.4E1,9E0,2.9E1,2.56E2,1.922E3,1.4E1,1.205E3,7.21E2,2.5E1,8E0,7.7E1,1.781E3],"tree_param":{"num_deleted":"0","num_feature":"408","num_nodes":"63","size_leaf_vector":"1"}},{"base_weights":[-4.0918444E-6,-4.759358E-3,2.7081238E-3,-9.8857535E-3,-3.5278157E-3,7.957496E-4,5.2405354E-3,-7.868059E-3,-1.205435E-2,-5.5595553E-3,-2.5686868E-3,1.0161712E-2,6.343983E-4,4.307149E-3,8.031228E-3,-8.228449E-3,2.7397575E-2,-1.2196291E-2,4.429079E-3,2.2370657E-3,-6.161172E-3,-3.0370876E-3,1.1272889E-3,1.541345E-2,-1.0838754E-3,-3.29068E-4,1.8834916E-3,5.196599E-3,1.5337933E-3,6.848701E-3,1.2185722E-2,-8.6428266E-4,1.2956088E-3,4.0043757E-4,6.5051443E-3,-1.5588275E-3,-9.506605E-4,-2.0010094E-3,5.8363023E-4,-6.5661874E-4,3.277878E-4,-1.5703182E-3,-2.8773284E-4,2.8373552E-3,5.35103E-5,5.143305E-3,1.2150639E-3,-8.0460665E-4,2.1999744E-3,-1.7820281E-4,1.0271343E-4,1.4808343E-4,9.1110106E-4,5.102739E-4,4.278314E-3,-1.3538237E-3,2.1914826E-4,5.78437E-4,1.2510491E-3,9.2269917E-4,2.1171214E-3],"categories":[],"categories_nodes":[],"categories_segments":[],"categories_sizes":[],"default_left":[0,0,0,0,0,0,0,0,0,0,0,0,0,0,0,0,0,0,0,0,0,0,0,0,0,0,0,0,0,0,0,0,0,0,0,0,0,0,0,0,0,0,0,0,0,0,0,0,0,0,0,0,0,0,0,0,0,0,0,0,0],"id":18,"left_children":[1,3,5,7,9,11,13,15,17,19,21,23,25,27,29,31,33,35,-1,37,39,41,43,45,47,49,51,53,55,57,59,-1,-1,-1,-1,-1,-1,-1,-1,-1,-1,-1,-1,-1,-1,-1,-1,-1,-1,-1,-1,-1,-1,-1,-1,-1,-1,-1,-1,-1,-1],"loss_changes":[2.708692E-1,4.812351E-2,6.4765036E-2,6.367877E-3,1.1974126E-2,1.1510482E-2,1.495339E-2,9.986248E-3,6.2185377E-3,9.263609E-3,7.241564E-3,7.635303E-3,9.018141E-3,1.063364E-2,6.9958866E-3,6.792333E-3,6.786265E-3,6.320268E-3,0E0,1.1487121E-2,7.02136E-3,7.4641258E-3,7.5843344E-3,9.717271E-3,6.9269394E-3,8.339049E-3,9.482536E-3,1.1303686E-2,1.04281055E-2,6.700877E-3,8.258894E-3,0E0,0E0,0E0,0E0,0E0,0E0,0E0,0E0,0E0,0E0,0E0,0E0,0E0,0E0,0E0,0E0,0E0,0E0,0E0,0E0,0E0,0E0,0E0,0E0,0E0,0E0,0E0,0E0,0E0,0E0],"parents":[2147483647,0,0,1,1,2,2,3,3,4,4,5,5,6,6,7,7,8,8,9,9,10,10,11,11,12,12,13,13,14,14,15,15,16,16,17,17,19,19,20,20,21,21,22,22,23,23,24,24,25,25,26,26,27,27,28,28,29,29,30,30],"right_children":[2,4,6,8,10,12,14,16,18,20,22,24,26,28,30,32,34,36,-1,38,40,42,44,46,48,50,52,54,56,58,60,-1,-1,-1,-1,-1,-1,-1,-1,-1,-1,-1,-1,-1,-1,-1,-1,-1,-1,-1,-1,-1,-1,-1,-1,-1,-1,-1,-1,-1,-1],"split_conditions":[3.8150182E-1,2.1261747E-1,5.090723E-1,1.0672827E0,3.001768E-1,-8.248204E-1,6.221271E-1,1.2889537E0,7.1747863E-1,1.8284172E-1,3.6277893E-1,1.8487954E-1,4.4337955E-1,3.3199722E-1,2.2752748E-1,1.4108337E0,-1.7636618E-1,-1.7016257E-1,4.429079E-3,-3.643626E-1,2.8347468E-1,-7.6236475E-1,-4.4890013E-1,-9.1181225E-1,3.738094E-1,-2.4443677E-2,4.533602E-1,6.589644E-1,-7.191554E-1,-5.33885E-2,-9.713286E-3,-8.6428266E-4,1.2956088E-3,4.0043757E-4,6.5051443E-3,-1.5588275E-3,-9.506605E-4,-2.0010094E-3,5.8363023E-4,-6.5661874E-4,3.277878E-4,-1.5703182E-3,-2.8773284E-4,2.8373552E-3,5.35103E-5,5.143305E-3,1.2150639E-3,-8.0460665E-4,2.1999744E-3,-1.7820281E-4,1.0271343E-4,1.4808343E-4,9.1110106E-4,5.102739E-4,4.278314E-3,-1.3538237E-3,2.1914826E-4,5.78437E-4,1.2510491E-3,9.2269917E-4,2.1171214E-3],"split_indices":[407,407,407,358,407,243,16,102,164,373,166,131,16,326,157,289,2,55,0,376,72,124,321,291,40,22,128,258,187,120,330,0,0,0,0,0,0,0,0,0,0,0,0,0,0,0,0,0,0,0,0,0,0,0,0,0,0,0,0,0,0],"split_type":[0,0,0,0,0,0,0,0,0,0,0,0,0,0,0,0,0,0,0,0,0,0,0,0,0,0,0,0,0,0,0,0,0,0,0,0,0,0,0,0,0,0,0,0,0,0,0,0,0,0,0,0,0,0,0,0,0,0,0,0,0],"sum_hessian":[2.1E4,7.627E3,1.3373E4,1.476E3,6.151E3,7.62E3,5.753E3,7.67E2,7.09E2,1.971E3,4.18E3,1.28E2,7.492E3,4.313E3,1.44E3,7.6E2,7E0,7.08E2,1E0,1.41E2,1.83E3,3.71E3,4.7E2,8.7E1,4.1E1,4.23E3,3.262E3,3.265E3,1.048E3,1.123E3,3.17E2,7.46E2,1.4E1,5E0,2E0,3.11E2,3.97E2,1.9E1,1.22E2,1.755E3,7.5E1,4.5E1,3.665E3,9E0,4.61E2,6E0,8.1E1,3.2E1,9E0,2.042E3,2.188E3,3.091E3,1.71E2,3.258E3,7E0,4.3E1,1.005E3,9.47E2,1.76E2,2.4E2,7.7E1],"tree_param":{"num_deleted":"0","num_feature":"408","num_nodes":"61","size_leaf_vector":"1"}},{"base_weights":[-2.4536E-6,-3.181834E-3,3.3307332E-3,-6.8879924E-3,-1.6119882E-3,2.2080203E-3,6.208356E-3,-9.056415E-3,-5.2116355E-3,-6.86467E-4,-3.297169E-3,2.3568613E-3,-1.02909235E-2,1.579661E-2,5.9001585E-3,2.2952696E-2,-9.211431E-3,2.6069465E-3,-5.7696644E-3,-2.3083694E-4,-5.2227946E-3,-2.9454627E-3,-1.3733653E-2,1.9451695E-3,6.305198E-3,-2.0383585E-2,3.8987168E-3,9.541351E-3,2.4740702E-2,4.4933897E-3,7.767396E-3,-6.4152805E-4,4.6582497E-3,1.7074611E-3,-9.376306E-4,-9.066675E-5,2.952576E-3,-5.5537134E-4,-2.3480738E-3,-5.6918776E-5,6.010373E-4,1.3364818E-3,-5.9022807E-4,-3.888333E-4,3.4499786E-5,-4.932056E-3,-1.0003293E-3,1.2043865E-4,4.23095E-4,2.1747376E-3,5.1906647E-4,6.4163277E-4,-2.6279192E-3,1.2937193E-3,-7.495796E-4,4.6417984E-4,2.8272166E-3,1.8148519E-3,4.945853E-3,-2.2898917E-4,5.3267804E-4,3.4081824E-3,7.4496854E-4],"categories":[],"categories_nodes":[],"categories_segments":[],"categories_sizes":[],"default_left":[0,0,0,0,0,0,0,0,0,0,0,0,0,0,0,0,0,0,0,0,0,0,0,0,0,0,0,0,0,0,0,0,0,0,0,0,0,0,0,0,0,0,0,0,0,0,0,0,0,0,0,0,0,0,0,0,0,0,0,0,0,0,0],"id":19,"left_children":[1,3,5,7,9,11,13,15,17,19,21,23,25,27,29,31,33,35,37,39,41,43,45,47,49,51,53,55,57,59,61,-1,-1,-1,-1,-1,-1,-1,-1,-1,-1,-1,-1,-1,-1,-1,-1,-1,-1,-1,-1,-1,-1,-1,-1,-1,-1,-1,-1,-1,-1,-1,-1],"loss_changes":[2.2256804E-1,6.252763E-2,3.3111118E-2,1.1577696E-2,1.1776365E-2,1.3748098E-2,8.408546E-3,7.123396E-3,7.894609E-3,1.0076936E-2,9.785691E-3,1.1839241E-2,1.25388475E-2,4.743276E-3,7.291168E-3,5.1565557E-3,6.171234E-3,1.1471231E-2,6.3180923E-3,9.362556E-3,5.6992415E-3,8.039858E-3,1.1056054E-2,1.11772455E-2,1.17281675E-2,8.226706E-3,3.9075688E-3,4.8244875E-3,4.968401E-3,9.017624E-3,9.753458E-3,0E0,0E0,0E0,0E0,0E0,0E0,0E0,0E0,0E0,0E0,0E0,0E0,0E0,0E0,0E0,0E0,0E0,0E0,0E0,0E0,0E0,0E0,0E0,0E0,0E0,0E0,0E0,0E0,0E0,0E0,0E0,0E0],"parents":[2147483647,0,0,1,1,2,2,3,3,4,4,5,5,6,6,7,7,8,8,9,9,10,10,11,11,12,12,13,13,14,14,15,15,16,16,17,17,18,18,19,19,20,20,21,21,22,22,23,23,24,24,25,25,26,26,27,27,28,28,29,29,30,30],"right_children":[2,4,6,8,10,12,14,16,18,20,22,24,26,28,30,32,34,36,38,40,42,44,46,48,50,52,54,56,58,60,62,-1,-1,-1,-1,-1,-1,-1,-1,-1,-1,-1,-1,-1,-1,-1,-1,-1,-1,-1,-1,-1,-1,-1,-1,-1,-1,-1,-1,-1,-1,-1,-1],"split_conditions":[4.2728204E-1,2.9384944E-1,5.797897E-1,2.0731367E-1,4.6954232E-1,1.2282417E0,-8.5070163E-1,-6.787325E-1,1.9493812E-1,5.846283E-1,1.3823849E0,5.9393317E-1,5.527059E-1,3.8215694E-1,-2.8176537E-1,-4.1354573E-1,-7.138427E-1,3.3672068E-1,9.7494465E-1,4.772049E-1,-4.0975145E-1,8.741272E-1,-3.6764514E-1,4.1782853E-1,-1.1301503E0,1.8309444E-1,1.7956679E-1,2.2575855E-1,1.694627E-1,5.223783E-1,-5.6852025E-1,-6.4152805E-4,4.6582497E-3,1.7074611E-3,-9.376306E-4,-9.066675E-5,2.952576E-3,-5.5537134E-4,-2.3480738E-3,-5.6918776E-5,6.010373E-4,1.3364818E-3,-5.9022807E-4,-3.888333E-4,3.4499786E-5,-4.932056E-3,-1.0003293E-3,1.2043865E-4,4.23095E-4,2.1747376E-3,5.1906647E-4,6.4163277E-4,-2.6279192E-3,1.2937193E-3,-7.495796E-4,4.6417984E-4,2.8272166E-3,1.8148519E-3,4.945853E-3,-2.2898917E-4,5.3267804E-4,3.4081824E-3,7.4496854E-4],"split_indices":[407,407,407,407,273,342,213,378,390,101,51,16,36,234,52,2,5,116,175,334,216,119,73,393,170,153,28,279,202,373,235,0,0,0,0,0,0,0,0,0,0,0,0,0,0,0,0,0,0,0,0,0,0,0,0,0,0,0,0,0,0,0,0],"split_type":[0,0,0,0,0,0,0,0,0,0,0,0,0,0,0,0,0,0,0,0,0,0,0,0,0,0,0,0,0,0,0,0,0,0,0,0,0,0,0,0,0,0,0,0,0,0,0,0,0,0,0,0,0,0,0,0,0,0,0,0,0,0,0],"sum_hessian":[2.1E4,1.0748E4,1.0252E4,3.197E3,7.551E3,7.376E3,2.876E3,1.392E3,1.805E3,4.875E3,2.676E3,7.29E3,8.6E1,8.8E1,2.788E3,6E0,1.386E3,1.2E2,1.685E3,4.431E3,4.44E2,2.59E3,8.6E1,6.603E3,6.87E2,5E1,3.6E1,5.3E1,3.5E1,1.592E3,1.196E3,3E0,3E0,8E0,1.378E3,1.07E2,1.3E1,1.666E3,1.9E1,4.204E3,2.27E2,1.5E1,4.29E2,2.013E3,5.77E2,7E0,7.9E1,4.988E3,1.615E3,4.5E1,6.42E2,9E0,4.1E1,2E1,1.6E1,4.3E1,1E1,2.9E1,6E0,1.74E2,1.418E3,1.3E1,1.183E3],"tree_param":{"num_deleted":"0","num_feature":"408","num_nodes":"63","size_leaf_vector":"1"}},{"base_weights":[-1.4435233E-6,-4.021176E-3,2.1423944E-3,-7.3654186E-3,-2.7857604E-3,6.524224E-4,4.4740504E-3,-7.0669865E-3,-1.868387E-2,-3.3767552E-3,-3.9625036E-5,1.0602159E-3,-3.175061E-3,3.9557875E-3,8.592647E-3,-7.3559573E-3,3.8934187E-3,-2.343222E-2,2.6527466E-3,-2.4879433E-3,-5.827229E-3,-4.143163E-4,2.17652E-2,1.5132414E-4,3.399014E-3,-7.933488E-3,-1.02977E-3,-1.7224258E-3,4.249393E-3,9.874532E-3,-4.438442E-4,-7.485295E-4,1.5206119E-3,-2.4445326E-4,1.7514349E-3,-2.5906253E-3,-4.3793007E-5,2.3477883E-3,-9.6262957E-4,-2.6076369E-4,1.6817356E-3,-5.171366E-4,-2.3287488E-3,4.1825166E-3,-5.502734E-5,-7.3478627E-4,3.56664E-3,-3.6400754E-3,2.3207434E-5,3.079643E-4,1.8353973E-3,-7.3404325E-4,-7.780216E-3,-2.115771E-6,-1.517703E-3,1.1020034E-3,-5.0700497E-4,1.3310476E-3,3.9711478E-4,8.783266E-4,2.097582E-3,2.334743E-3,-3.6330626E-4],"categories":[],"categories_nodes":[],"categories_segments":[],"categories_sizes":[],"default_left":[0,0,0,0,0,0,0,0,0,0,0,0,0,0,0,0,0,0,0,0,0,0,0,0,0,0,0,0,0,0,0,0,0,0,0,0,0,0,0,0,0,0,0,0,0,0,0,0,0,0,0,0,0,0,0,0,0,0,0,0,0,0,0],"id":20,"left_children":[1,3,5,7,9,11,13,15,17,19,21,23,25,27,29,31,33,35,37,39,41,43,45,47,49,51,53,55,57,59,61,-1,-1,-1,-1,-1,-1,-1,-1,-1,-1,-1,-1,-1,-1,-1,-1,-1,-1,-1,-1,-1,-1,-1,-1,-1,-1,-1,-1,-1,-1,-1,-1],"loss_changes":[1.8098798E-1,3.0160323E-2,4.758186E-2,6.5222085E-3,8.6599365E-3,1.30487215E-2,1.1364333E-2,6.1128885E-3,5.1278435E-3,9.549145E-3,7.7379113E-3,1.605713E-2,8.209438E-3,7.9179555E-3,6.908294E-3,5.576566E-3,4.3592537E-3,2.3210905E-3,2.7831323E-3,7.493617E-3,1.3254978E-2,5.369521E-3,6.737376E-3,1.6068036E-2,1.0040319E-2,9.7878985E-3,7.933298E-3,1.0037602E-2,1.1322804E-2,6.1395094E-3,5.77549E-3,0E0,0E0,0E0,0E0,0E0,0E0,0E0,0E0,0E0,0E0,0E0,0E0,0E0,0E0,0E0,0E0,0E0,0E0,0E0,0E0,0E0,0E0,0E0,0E0,0E0,0E0,0E0,0E0,0E0,0E0,0E0,0E0],"parents":[2147483647,0,0,1,1,2,2,3,3,4,4,5,5,6,6,7,7,8,8,9,9,10,10,11,11,12,12,13,13,14,14,15,15,16,16,17,17,18,18,19,19,20,20,21,21,22,22,23,23,24,24,25,25,26,26,27,27,28,28,29,29,30,30],"right_children":[2,4,6,8,10,12,14,16,18,20,22,24,26,28,30,32,34,36,38,40,42,44,46,48,50,52,54,56,58,60,62,-1,-1,-1,-1,-1,-1,-1,-1,-1,-1,-1,-1,-1,-1,-1,-1,-1,-1,-1,-1,-1,-1,-1,-1,-1,-1,-1,-1,-1,-1,-1,-1],"split_conditions":[3.7610495E-1,2.464874E-1,5.181911E-1,1.5427881E0,1.2632543E-1,9.0748E-1,6.789802E-1,6.7350566E-1,2.2478992E-1,7.7497834E-1,8.01391E-1,1.8668321E-1,-5.523862E-1,-5.310446E-1,8.350237E-1,8.444011E-1,4.9437892E-1,1.0865506E0,-1.7786464E-1,6.115844E-1,5.7184005E-1,-8.37827E-1,-1.3741502E-1,1.8926212E-1,7.50928E-1,7.768866E-1,1.3823849E0,-7.337996E-1,-6.8132627E-1,7.5982285E-1,1.3378829E-1,-7.485295E-4,1.5206119E-3,-2.4445326E-4,1.7514349E-3,-2.5906253E-3,-4.3793007E-5,2.3477883E-3,-9.6262957E-4,-2.6076369E-4,1.6817356E-3,-5.171366E-4,-2.3287488E-3,4.1825166E-3,-5.502734E-5,-7.3478627E-4,3.56664E-3,-3.6400754E-3,2.3207434E-5,3.079643E-4,1.8353973E-3,-7.3404325E-4,-7.780216E-3,-2.115771E-6,-1.517703E-3,1.1020034E-3,-5.0700497E-4,1.3310476E-3,3.9711478E-4,8.783266E-4,2.097582E-3,2.334743E-3,-3.6330626E-4],"split_indices":[407,407,390,187,378,51,16,57,402,358,19,240,379,393,50,194,262,85,6,133,360,212,217,16,58,398,68,359,2,79,242,0,0,0,0,0,0,0,0,0,0,0,0,0,0,0,0,0,0,0,0,0,0,0,0,0,0,0,0,0,0,0,0],"split_type":[0,0,0,0,0,0,0,0,0,0,0,0,0,0,0,0,0,0,0,0,0,0,0,0,0,0,0,0,0,0,0,0,0,0,0,0,0,0,0,0,0,0,0,0,0,0,0,0,0,0,0,0,0,0,0,0,0,0,0,0,0,0,0],"sum_hessian":[2.1E4,7.304E3,1.3696E4,1.969E3,5.335E3,8.357E3,5.339E3,1.92E3,4.9E1,4.39E3,9.45E2,7.553E3,8.04E2,4.744E3,5.95E2,1.871E3,4.9E1,4E1,9E0,3.223E3,1.167E3,9.3E2,1.5E1,5.44E3,2.113E3,2.49E2,5.55E2,2.33E2,4.511E3,5.21E2,7.4E1,1.861E3,1E1,3.4E1,1.5E1,3.6E1,4E0,3E0,6E0,3.204E3,1.9E1,1.126E3,4.1E1,2E0,9.28E2,5E0,1E1,1.1E1,5.429E3,2.07E3,4.3E1,2.48E2,1E0,5.19E2,3.6E1,4.8E1,1.85E2,1.33E2,4.378E3,4.76E2,4.5E1,8E0,6.6E1],"tree_param":{"num_deleted":"0","num_feature":"408","num_nodes":"63","size_leaf_vector":"1"}},{"base_weights":[-1.1886159E-6,-2.6022776E-3,2.7257309E-3,-5.6164474E-3,-1.3255406E-3,1.8011943E-3,5.095415E-3,-7.1260757E-3,-3.7019132E-3,-1.3678666E-3,3.0733572E-2,1.9358941E-3,-9.507973E-3,4.695562E-3,1.1597253E-2,-1.301988E-2,-6.3541103E-3,-3.8852463E-3,3.3650693E-2,1.1458448E-3,-1.8384283E-3,3.770226E-3,1.9058809E-3,-3.8112665E-4,2.5022628E-3,-1.7831014E-2,5.3544743E-3,3.178786E-3,6.7560864E-3,3.766795E-2,8.94819E-3,-1.3769646E-3,2.8285708E-3,-6.829922E-4,4.3401468E-4,-5.3468614E-4,-4.1772808E-5,5.7706984E-5,4.6764733E-3,7.568768E-5,2.001167E-3,-3.339234E-4,-1.1135087E-4,5.941108E-4,-3.0822866E-4,1.3267822E-4,-4.0433058E-4,-7.970129E-5,3.01661E-4,-8.012325E-5,-3.2563452E-3,1.3396887E-3,-1.121712E-3,-2.725208E-4,3.9874171E-4,3.257534E-3,6.454938E-4,5.61534E-3,1.9105049E-3,9.95051E-4,-3.0625255E-3],"categories":[],"categories_nodes":[],"categories_segments":[],"categories_sizes":[],"default_left":[0,0,0,0,0,0,0,0,0,0,0,0,0,0,0,0,0,0,0,0,0,0,0,0,0,0,0,0,0,0,0,0,0,0,0,0,0,0,0,0,0,0,0,0,0,0,0,0,0,0,0,0,0,0,0,0,0,0,0,0,0],"id":21,"left_children":[1,3,5,7,9,11,13,15,17,19,21,23,25,27,29,31,33,35,37,39,41,-1,43,45,47,49,51,53,55,57,59,-1,-1,-1,-1,-1,-1,-1,-1,-1,-1,-1,-1,-1,-1,-1,-1,-1,-1,-1,-1,-1,-1,-1,-1,-1,-1,-1,-1,-1,-1],"loss_changes":[1.4896634E-1,4.135795E-2,2.245371E-2,9.216599E-3,1.0289623E-2,1.1256106E-2,7.425107E-3,8.047782E-3,9.800073E-3,8.92439E-3,1.937056E-3,9.568848E-3,1.0857444E-2,8.454483E-3,1.1127384E-2,6.7692064E-3,8.079581E-3,7.123621E-3,3.0091153E-3,8.717313E-3,6.909201E-3,0E0,7.869736E-5,8.968304E-3,9.944968E-3,1.402376E-2,4.4150935E-3,7.477641E-3,8.72371E-3,4.0743407E-3,6.333852E-3,0E0,0E0,0E0,0E0,0E0,0E0,0E0,0E0,0E0,0E0,0E0,0E0,0E0,0E0,0E0,0E0,0E0,0E0,0E0,0E0,0E0,0E0,0E0,0E0,0E0,0E0,0E0,0E0,0E0,0E0],"parents":[2147483647,0,0,1,1,2,2,3,3,4,4,5,5,6,6,7,7,8,8,9,9,10,10,11,11,12,12,13,13,14,14,15,15,16,16,17,17,18,18,19,19,20,20,22,22,23,23,24,24,25,25,26,26,27,27,28,28,29,29,30,30],"right_children":[2,4,6,8,10,12,14,16,18,20,22,24,26,28,30,32,34,36,38,40,42,-1,44,46,48,50,52,54,56,58,60,-1,-1,-1,-1,-1,-1,-1,-1,-1,-1,-1,-1,-1,-1,-1,-1,-1,-1,-1,-1,-1,-1,-1,-1,-1,-1,-1,-1,-1,-1],"split_conditions":[4.2728204E-1,2.9384944E-1,5.797897E-1,2.4351805E-2,6.5674144E-1,1.2282417E0,7.715642E-1,9.332837E-2,6.945933E-1,-4.6912375E-1,-2.97975E-2,-2.1102656E-1,6.398234E-1,-2.5035232E-1,-3.7823847E-1,7.9137975E-1,5.230301E-1,-1.3661873E-2,-4.817316E-1,5.651121E-1,3.483763E-1,3.770226E-3,3.371065E-1,3.0302256E-1,-3.3927053E-1,4.5157903E-1,2.4591862E-1,5.223783E-1,-5.6852025E-1,-5.598261E-1,3.754274E-1,-1.3769646E-3,2.8285708E-3,-6.829922E-4,4.3401468E-4,-5.3468614E-4,-4.1772808E-5,5.7706984E-5,4.6764733E-3,7.568768E-5,2.001167E-3,-3.339234E-4,-1.1135087E-4,5.941108E-4,-3.0822866E-4,1.3267822E-4,-4.0433058E-4,-7.970129E-5,3.01661E-4,-8.012325E-5,-3.2563452E-3,1.3396887E-3,-1.121712E-3,-2.725208E-4,3.9874171E-4,3.257534E-3,6.454938E-4,5.61534E-3,1.9105049E-3,9.95051E-4,-3.0625255E-3],"split_indices":[407,407,407,131,16,342,373,254,336,243,6,115,153,52,263,226,261,317,6,364,407,0,0,139,333,136,28,373,235,39,4,0,0,0,0,0,0,0,0,0,0,0,0,0,0,0,0,0,0,0,0,0,0,0,0,0,0,0,0,0,0],"split_type":[0,0,0,0,0,0,0,0,0,0,0,0,0,0,0,0,0,0,0,0,0,0,0,0,0,0,0,0,0,0,0,0,0,0,0,0,0,0,0,0,0,0,0,0,0,0,0,0,0,0,0,0,0,0,0,0,0,0,0,0,0],"sum_hessian":[2.1E4,1.0748E4,1.0252E4,3.197E3,7.551E3,7.376E3,2.876E3,1.786E3,1.411E3,7.542E3,9E0,7.29E3,8.6E1,2.711E3,1.65E2,2.05E2,1.581E3,1.405E3,6E0,1.189E3,6.353E3,7E0,2E0,1.432E3,5.858E3,5.5E1,3.1E1,1.563E3,1.148E3,1.4E1,1.51E2,2.02E2,3E0,1.514E3,6.7E1,9.88E2,4.17E2,2E0,4E0,1.166E3,2.3E1,2.068E3,4.285E3,1E0,1E0,9.77E2,4.55E2,7.9E2,5.068E3,2.6E1,2.9E1,2.1E1,1E1,1.88E2,1.375E3,1.2E1,1.136E3,6E0,8E0,1.48E2,3E0],"tree_param":{"num_deleted":"0","num_feature":"408","num_nodes":"61","size_leaf_vector":"1"}},{"base_weights":[-2.431291E-7,-2.8076041E-3,2.048684E-3,-5.4794033E-3,-1.6790032E-3,1.2970241E-3,5.0381506E-3,-3.8274464E-3,-7.4461726E-3,-1.4047127E-3,-6.5952917E-3,3.676823E-5,2.2974866E-3,-2.7031377E-2,5.1283473E-3,1.21511575E-2,-4.1547627E-3,-8.634362E-3,-2.114081E-3,-1.018745E-3,-4.925003E-3,-5.8344593E-3,-4.6581008E-2,-8.024294E-3,2.5254313E-4,-1.1626834E-2,2.4505863E-3,-3.0197396E-3,-4.0176362E-4,3.9719315E-3,7.630249E-3,4.4998047E-3,-2.5047077E-4,-4.3451236E-4,2.2816055E-3,-7.902278E-4,-2.0148358E-3,-3.107162E-4,5.2289064E-3,-2.1829603E-4,1.05813415E-4,-4.177893E-4,-1.4449013E-3,-2.441496E-3,-5.103468E-4,-2.1311627E-3,-6.4746514E-3,-4.961473E-3,-5.202055E-4,-1.3706203E-5,3.87832E-4,-1.4097712E-3,2.5872143E-3,3.3279785E-4,-2.791602E-6,1.0187862E-3,3.188586E-4,1.796788E-3,6.402083E-4],"categories":[],"categories_nodes":[],"categories_segments":[],"categories_sizes":[],"default_left":[0,0,0,0,0,0,0,0,0,0,0,0,0,0,0,0,0,0,0,0,0,0,0,0,0,0,0,0,0,0,0,0,0,0,0,0,0,0,0,0,0,0,0,0,0,0,0,0,0,0,0,0,0,0,0,0,0,0,0],"id":22,"left_children":[1,3,5,7,9,11,13,15,17,19,21,23,25,27,29,31,33,35,37,39,41,43,45,47,49,51,53,-1,-1,55,57,-1,-1,-1,-1,-1,-1,-1,-1,-1,-1,-1,-1,-1,-1,-1,-1,-1,-1,-1,-1,-1,-1,-1,-1,-1,-1,-1,-1],"loss_changes":[1.20805144E-1,2.6710212E-2,2.7275052E-2,8.519672E-3,8.393189E-3,1.2233835E-2,7.1935877E-3,7.539926E-3,7.5843856E-3,8.015494E-3,9.737197E-3,7.4726413E-3,1.1559462E-2,3.8871123E-4,7.0089474E-3,1.40732955E-2,7.3075388E-3,8.109838E-3,1.2048344E-2,1.2868138E-2,4.0879603E-3,4.2760307E-3,1.3743322E-3,1.2888254E-2,5.9109395E-3,5.8314027E-3,1.1636473E-2,0E0,0E0,8.079639E-3,9.635754E-3,0E0,0E0,0E0,0E0,0E0,0E0,0E0,0E0,0E0,0E0,0E0,0E0,0E0,0E0,0E0,0E0,0E0,0E0,0E0,0E0,0E0,0E0,0E0,0E0,0E0,0E0,0E0,0E0],"parents":[2147483647,0,0,1,1,2,2,3,3,4,4,5,5,6,6,7,7,8,8,9,9,10,10,11,11,12,12,13,13,14,14,15,15,16,16,17,17,18,18,19,19,20,20,21,21,22,22,23,23,24,24,25,25,26,26,29,29,30,30],"right_children":[2,4,6,8,10,12,14,16,18,20,22,24,26,28,30,32,34,36,38,40,42,44,46,48,50,52,54,-1,-1,56,58,-1,-1,-1,-1,-1,-1,-1,-1,-1,-1,-1,-1,-1,-1,-1,-1,-1,-1,-1,-1,-1,-1,-1,-1,-1,-1,-1,-1],"split_conditions":[4.009491E-1,2.8454453E-1,5.914209E-1,9.279105E-1,1.2112489E0,4.6515307E-1,-4.664969E-1,-5.349043E-1,4.38025E-1,1.1581588E0,5.5022705E-1,-7.4534416E-1,-1.3975234E0,-2.2311193E-1,-3.631582E-1,-6.628869E-1,8.617836E-1,5.0927204E-1,3.3237183E-1,3.4572348E-1,4.4864395E-1,-7.4126816E-1,-2.7207512E-1,-4.2514095E-1,4.1896722E-1,6.99545E-1,3.4830916E-1,-3.0197396E-3,-4.0176362E-4,-5.8446723E-1,-1.8277204E-1,4.4998047E-3,-2.5047077E-4,-4.3451236E-4,2.2816055E-3,-7.902278E-4,-2.0148358E-3,-3.107162E-4,5.2289064E-3,-2.1829603E-4,1.05813415E-4,-4.177893E-4,-1.4449013E-3,-2.441496E-3,-5.103468E-4,-2.1311627E-3,-6.4746514E-3,-4.961473E-3,-5.202055E-4,-1.3706203E-5,3.87832E-4,-1.4097712E-3,2.5872143E-3,3.3279785E-4,-2.791602E-6,1.0187862E-3,3.188586E-4,1.796788E-3,6.402083E-4],"split_indices":[407,33,16,375,238,407,49,264,281,391,355,379,204,3,188,326,349,343,220,323,133,162,8,312,317,163,360,0,0,128,287,0,0,0,0,0,0,0,0,0,0,0,0,0,0,0,0,0,0,0,0,0,0,0,0,0,0,0,0],"split_type":[0,0,0,0,0,0,0,0,0,0,0,0,0,0,0,0,0,0,0,0,0,0,0,0,0,0,0,0,0,0,0,0,0,0,0,0,0,0,0,0,0,0,0,0,0,0,0,0,0,0,0,0,0,0,0,0,0,0,0],"sum_hessian":[2.1E4,8.86E3,1.214E4,2.63E3,6.23E3,9.702E3,2.438E3,1.431E3,1.199E3,5.902E3,3.28E2,4.294E3,5.408E3,6E0,2.432E3,2.8E1,1.403E3,9.8E2,2.19E2,5.32E3,5.82E2,3.23E2,5E0,1.11E2,4.183E3,5.8E1,5.35E3,5E0,1E0,1.665E3,7.67E2,8E0,2E1,1.394E3,9E0,9.23E2,5.7E1,2.16E2,3E0,3.409E3,1.911E3,5.41E2,4.1E1,1.1E1,3.12E2,3E0,2E0,6E0,1.05E2,3.778E3,4.05E2,5.5E1,3E0,3.951E3,1.399E3,1.85E2,1.48E3,8E1,6.87E2],"tree_param":{"num_deleted":"0","num_feature":"408","num_nodes":"59","size_leaf_vector":"1"}},{"base_weights":[-6.2567676E-7,-1.9530787E-3,2.3930175E-3,-4.279091E-3,-7.8891404E-4,1.6789825E-3,4.5053535E-3,-3.1443257E-3,-6.2826183E-3,-1.5190007E-3,5.056261E-4,1.0208825E-2,1.5072795E-3,2.2936102E-3,5.846065E-3,-1.5534065E-3,-5.714832E-3,-9.564007E-3,-4.3313364E-3,-1.4215577E-3,-2.0580452E-2,8.038327E-5,1.2527962E-2,4.375729E-2,7.5496435E-3,1.8715103E-3,-1.8515745E-3,-5.1226426E-4,5.409528E-3,1.9353792E-3,6.946279E-3,-1.8195348E-4,1.9622527E-3,-6.8657263E-4,6.0693303E-5,-7.932406E-4,-1.9117317E-3,1.3047134E-3,-4.7943028E-4,-1.4807256E-4,2.769507E-3,7.326286E-5,-2.8909573E-3,-1.422438E-3,3.0741263E-5,2.8621757E-3,5.3750066E-4,5.56477E-3,-2.5362422E-4,-1.7674414E-5,1.6566709E-3,1.6266016E-4,8.205738E-4,-2.128045E-3,-1.1665123E-4,-1.1643514E-3,6.511197E-5,4.3611016E-4,1.9647891E-3,9.094354E-4,-8.636081E-5,6.3022116E-4,1.5204431E-3],"categories":[],"categories_nodes":[],"categories_segments":[],"categories_sizes":[],"default_left":[0,0,0,0,0,0,0,0,0,0,0,0,0,0,0,0,0,0,0,0,0,0,0,0,0,0,0,0,0,0,0,0,0,0,0,0,0,0,0,0,0,0,0,0,0,0,0,0,0,0,0,0,0,0,0,0,0,0,0,0,0,0,0],"id":23,"left_children":[1,3,5,7,9,11,13,15,17,19,21,23,25,27,29,31,33,35,37,39,41,43,45,47,49,51,53,55,57,59,61,-1,-1,-1,-1,-1,-1,-1,-1,-1,-1,-1,-1,-1,-1,-1,-1,-1,-1,-1,-1,-1,-1,-1,-1,-1,-1,-1,-1,-1,-1,-1,-1],"loss_changes":[9.815235E-2,3.1318456E-2,1.4223073E-2,8.751534E-3,7.287694E-3,1.03144385E-2,7.0529245E-3,1.0071659E-2,8.884236E-3,9.127749E-3,1.421661E-2,1.2070037E-2,8.463265E-3,7.880101E-3,6.3672997E-3,8.624231E-3,6.857861E-3,7.938106E-3,7.1105417E-3,8.492902E-3,4.4591613E-3,8.730677E-3,1.0782386E-2,5.645627E-3,9.059942E-3,9.665262E-3,8.986038E-3,6.1587924E-3,6.2885154E-3,6.56024E-3,6.058041E-3,0E0,0E0,0E0,0E0,0E0,0E0,0E0,0E0,0E0,0E0,0E0,0E0,0E0,0E0,0E0,0E0,0E0,0E0,0E0,0E0,0E0,0E0,0E0,0E0,0E0,0E0,0E0,0E0,0E0,0E0,0E0,0E0],"parents":[2147483647,0,0,1,1,2,2,3,3,4,4,5,5,6,6,7,7,8,8,9,9,10,10,11,11,12,12,13,13,14,14,15,15,16,16,17,17,18,18,19,19,20,20,21,21,22,22,23,23,24,24,25,25,26,26,27,27,28,28,29,29,30,30],"right_children":[2,4,6,8,10,12,14,16,18,20,22,24,26,28,30,32,34,36,38,40,42,44,46,48,50,52,54,56,58,60,62,-1,-1,-1,-1,-1,-1,-1,-1,-1,-1,-1,-1,-1,-1,-1,-1,-1,-1,-1,-1,-1,-1,-1,-1,-1,-1,-1,-1,-1,-1,-1,-1],"split_conditions":[4.3770355E-1,3.1050527E-1,5.914209E-1,9.891936E-1,3.4572348E-1,2.5095376E-1,-6.6474654E-2,3.2742735E-2,-1.8168904E-1,1.340069E0,6.4936745E-1,-6.0890406E-1,9.075441E-1,-5.58562E-1,-5.691533E-1,8.01391E-1,3.507161E-1,3.560673E-1,-5.4461354E-1,1.3856921E0,-5.575792E-1,-7.281391E-1,-3.9423373E-1,9.647943E-2,1.2560725E-1,6.55904E-1,3.4539872E-1,-3.784051E-1,5.5589914E-1,-5.818294E-1,7.715642E-1,-1.8195348E-4,1.9622527E-3,-6.8657263E-4,6.0693303E-5,-7.932406E-4,-1.9117317E-3,1.3047134E-3,-4.7943028E-4,-1.4807256E-4,2.769507E-3,7.326286E-5,-2.8909573E-3,-1.422438E-3,3.0741263E-5,2.8621757E-3,5.3750066E-4,5.56477E-3,-2.5362422E-4,-1.7674414E-5,1.6566709E-3,1.6266016E-4,8.205738E-4,-2.128045E-3,-1.1665123E-4,-1.1643514E-3,6.511197E-5,4.3611016E-4,1.9647891E-3,9.094354E-4,-8.636081E-5,6.3022116E-4,1.5204431E-3],"split_indices":[407,407,16,273,323,169,218,215,55,256,210,400,34,103,107,2,351,302,331,307,280,124,341,23,147,356,305,93,98,211,373,0,0,0,0,0,0,0,0,0,0,0,0,0,0,0,0,0,0,0,0,0,0,0,0,0,0,0,0,0,0,0,0],"split_type":[0,0,0,0,0,0,0,0,0,0,0,0,0,0,0,0,0,0,0,0,0,0,0,0,0,0,0,0,0,0,0,0,0,0,0,0,0,0,0,0,0,0,0,0,0,0,0,0,0,0,0,0,0,0,0,0,0,0,0,0,0,0,0],"sum_hessian":[2.1E4,1.1566E4,9.434E3,3.857E3,7.709E3,7.052E3,2.382E3,2.464E3,1.393E3,4.929E3,2.78E3,1.38E2,6.914E3,9E2,1.482E3,1.523E3,9.41E2,5.18E2,8.75E2,4.905E3,2.4E1,2.686E3,9.4E1,9E0,1.29E2,6.238E3,6.76E2,4.74E2,4.26E2,3.26E2,1.156E3,1.505E3,1.8E1,7.96E2,1.45E2,4.44E2,7.4E1,2.2E1,8.53E2,4.896E3,9E0,7E0,1.7E1,4.1E1,2.645E3,2.8E1,6.6E1,7E0,2E0,7E1,5.9E1,6.007E3,2.31E2,2.2E1,6.54E2,4.4E1,4.3E2,3.98E2,2.8E1,9.1E1,2.35E2,1.074E3,8.2E1],"tree_param":{"num_deleted":"0","num_feature":"408","num_nodes":"63","size_leaf_vector":"1"}},{"base_weights":[-3.704075E-8,-2.6966007E-3,1.4381171E-3,-5.6714774E-3,-1.9953155E-3,3.879769E-4,3.0814942E-3,-5.330497E-3,-1.914389E-2,-7.244207E-3,-1.7125E-3,-1.827209E-4,2.2288437E-3,-2.1147493E-3,3.3824884E-3,-5.669041E-3,1.0977005E-2,-1.0056896E-2,-2.9983623E-2,-1.1226865E-2,-1.8160922E-3,2.764818E-3,-2.0631307E-3,-1.36832905E-5,-1.00942E-2,1.6495194E-2,1.9108263E-3,-2.3330962E-4,-1.8600926E-2,2.8672433E-2,3.311497E-3,-6.22389E-4,2.8716875E-4,4.424512E-3,5.2150263E-4,3.841623E-4,-1.3771628E-3,-3.77535E-3,-1.203656E-3,-2.637038E-3,-8.9759886E-4,-1.9302688E-3,4.8056034E-5,8.240266E-4,-2.6443118E-4,-1.5470434E-4,-4.7545563E-4,1.5695492E-6,-4.6076193E-3,1.3294354E-3,-1.4352566E-3,6.645889E-4,3.871314E-3,6.4834174E-5,5.574797E-4,2.8990212E-4,-1.1659476E-3,-4.292504E-4,-3.262318E-3,1.0549332E-3,3.486674E-3,2.856895E-4,6.8535114E-4],"categories":[],"categories_nodes":[],"categories_segments":[],"categories_sizes":[],"default_left":[0,0,0,0,0,0,0,0,0,0,0,0,0,0,0,0,0,0,0,0,0,0,0,0,0,0,0,0,0,0,0,0,0,0,0,0,0,0,0,0,0,0,0,0,0,0,0,0,0,0,0,0,0,0,0,0,0,0,0,0,0,0,0],"id":24,"left_children":[1,3,5,7,9,11,13,15,17,19,21,23,25,27,29,31,33,35,37,39,41,43,45,47,49,51,53,55,57,59,61,-1,-1,-1,-1,-1,-1,-1,-1,-1,-1,-1,-1,-1,-1,-1,-1,-1,-1,-1,-1,-1,-1,-1,-1,-1,-1,-1,-1,-1,-1,-1,-1],"loss_changes":[8.144732E-2,1.5228644E-2,2.3636766E-2,6.2971637E-3,8.76525E-3,8.781143E-3,8.359116E-3,7.570531E-3,3.0474775E-3,6.5083466E-3,8.815901E-3,1.0690672E-2,8.942567E-3,9.08386E-3,8.96807E-3,6.334711E-3,5.136584E-3,1.0854907E-3,1.6372753E-3,5.694296E-3,5.1899976E-3,1.2105692E-2,7.2224475E-3,8.492433E-3,1.0847686E-2,9.152463E-3,8.951753E-3,9.482502E-3,5.8790566E-3,1.203821E-3,8.087814E-3,0E0,0E0,0E0,0E0,0E0,0E0,0E0,0E0,0E0,0E0,0E0,0E0,0E0,0E0,0E0,0E0,0E0,0E0,0E0,0E0,0E0,0E0,0E0,0E0,0E0,0E0,0E0,0E0,0E0,0E0,0E0,0E0],"parents":[2147483647,0,0,1,1,2,2,3,3,4,4,5,5,6,6,7,7,8,8,9,9,10,10,11,11,12,12,13,13,14,14,15,15,16,16,17,17,18,18,19,19,20,20,21,21,22,22,23,23,24,24,25,25,26,26,27,27,28,28,29,29,30,30],"right_children":[2,4,6,8,10,12,14,16,18,20,22,24,26,28,30,32,34,36,38,40,42,44,46,48,50,52,54,56,58,60,62,-1,-1,-1,-1,-1,-1,-1,-1,-1,-1,-1,-1,-1,-1,-1,-1,-1,-1,-1,-1,-1,-1,-1,-1,-1,-1,-1,-1,-1,-1,-1,-1],"split_conditions":[3.7610495E-1,2.0731367E-1,5.181911E-1,1.978315E-1,1.5176329E-1,2.0698127E-1,3.6279893E-1,7.50928E-1,1.5927901E-2,-1.3742868E-2,2.0731367E-1,1.309903E0,-7.616385E-1,3.687602E-1,1.9493812E-1,4.2728204E-1,-3.7222984E-1,-2.7764016E-1,3.370573E-1,-3.8371822E-1,-4.4809812E-1,-1.8467385E-1,8.38459E-1,1.3031648E0,-4.797223E-1,3.1297356E-1,4.0481564E-1,5.959803E-1,-3.9680757E-2,-1.0907088E-1,1.903191E-1,-6.22389E-4,2.8716875E-4,4.424512E-3,5.2150263E-4,3.841623E-4,-1.3771628E-3,-3.77535E-3,-1.203656E-3,-2.637038E-3,-8.9759886E-4,-1.9302688E-3,4.8056034E-5,8.240266E-4,-2.6443118E-4,-1.5470434E-4,-4.7545563E-4,1.5695492E-6,-4.6076193E-3,1.3294354E-3,-1.4352566E-3,6.645889E-4,3.871314E-3,6.4834174E-5,5.574797E-4,2.8990212E-4,-1.1659476E-3,-4.292504E-4,-3.262318E-3,1.0549332E-3,3.486674E-3,2.856895E-4,6.8535114E-4],"split_indices":[407,407,390,55,50,133,254,364,65,232,169,68,8,299,50,67,25,299,210,166,5,45,341,205,161,222,274,373,219,113,225,0,0,0,0,0,0,0,0,0,0,0,0,0,0,0,0,0,0,0,0,0,0,0,0,0,0,0,0,0,0,0,0],"split_type":[0,0,0,0,0,0,0,0,0,0,0,0,0,0,0,0,0,0,0,0,0,0,0,0,0,0,0,0,0,0,0,0,0,0,0,0,0,0,0,0,0,0,0,0,0,0,0,0,0,0,0,0,0,0,0,0,0,0,0,0,0,0,0],"sum_hessian":[2.1E4,7.304E3,1.3696E4,1.392E3,5.912E3,8.357E3,5.339E3,1.359E3,3.3E1,3.01E2,5.611E3,6.38E3,1.977E3,2.92E2,5.047E3,1.332E3,2.7E1,1.9E1,1.4E1,1.73E2,1.28E2,4.07E2,5.204E3,6.274E3,1.06E2,4.2E1,1.935E3,2.63E2,2.9E1,1.3E1,5.034E3,1.251E3,8.1E1,3E0,2.4E1,4E0,1.5E1,9E0,5E0,2.1E1,1.52E2,1.4E1,1.14E2,2.02E2,2.05E2,4.368E3,8.36E2,6.271E3,3E0,1.6E1,9E1,3E1,1.2E1,1.44E3,4.95E2,2.07E2,5.6E1,1.5E1,1.4E1,4E0,9E0,4.463E3,5.71E2],"tree_param":{"num_deleted":"0","num_feature":"408","num_nodes":"63","size_leaf_vector":"1"}},{"base_weights":[-2.945608E-7,-2.5663443E-3,1.2307513E-3,-4.8124897E-3,-1.7949718E-3,1.4776435E-4,2.5736932E-3,-4.922436E-3,4.4134814E-2,-1.4280061E-3,-5.792062E-3,-3.9417235E-5,5.4903287E-3,1.5874378E-3,4.3238928E-3,-5.1179314E-3,1.642544E-2,5.588095E-3,4.448209E-4,-8.311338E-3,-1.215401E-3,-1.1520078E-2,-1.513323E-3,3.2206886E-2,-6.916347E-5,1.9083053E-3,1.3794679E-2,7.0606326E-3,1.1497425E-3,2.021829E-2,4.131836E-3,-4.8060037E-4,-1.5896306E-3,4.5585856E-3,-9.734622E-5,-1.3356572E-3,1.5318466E-4,-1.616011E-4,2.117801E-4,-7.2352757E-4,-2.1542662E-3,3.4598747E-4,-8.759058E-4,3.6488224E-3,3.259428E-4,-8.3894323E-4,4.196046E-6,-6.417819E-5,1.3001306E-3,4.3707998E-3,1.1217685E-3,1.540881E-3,2.3525294E-4,8.9309724E-5,1.1834119E-3,5.4144E-4,2.8607969E-3,1.7815051E-4,5.3669786E-4],"categories":[],"categories_nodes":[],"categories_segments":[],"categories_sizes":[],"default_left":[0,0,0,0,0,0,0,0,0,0,0,0,0,0,0,0,0,0,0,0,0,0,0,0,0,0,0,0,0,0,0,0,0,0,0,0,0,0,0,0,0,0,0,0,0,0,0,0,0,0,0,0,0,0,0,0,0,0,0],"id":25,"left_children":[1,3,5,7,9,11,13,15,17,19,21,23,25,27,29,31,33,-1,-1,35,37,39,41,43,45,47,49,51,53,55,57,-1,-1,-1,-1,-1,-1,-1,-1,-1,-1,-1,-1,-1,-1,-1,-1,-1,-1,-1,-1,-1,-1,-1,-1,-1,-1,-1,-1],"loss_changes":[6.634374E-2,1.1788733E-2,2.0641755E-2,9.581193E-3,7.4283797E-3,7.85845E-3,1.0929983E-2,7.33329E-3,1.6160859E-3,6.7875367E-3,1.0423265E-2,7.2854804E-3,7.886211E-3,9.703609E-3,6.885618E-3,5.713105E-3,8.162124E-3,0E0,0E0,6.9233626E-3,6.0216817E-3,7.660087E-3,8.8587515E-3,7.4860733E-4,7.0151477E-3,5.2982224E-3,5.676614E-3,1.1754975E-2,1.0285997E-2,3.1985026E-3,6.5424964E-3,0E0,0E0,0E0,0E0,0E0,0E0,0E0,0E0,0E0,0E0,0E0,0E0,0E0,0E0,0E0,0E0,0E0,0E0,0E0,0E0,0E0,0E0,0E0,0E0,0E0,0E0,0E0,0E0],"parents":[2147483647,0,0,1,1,2,2,3,3,4,4,5,5,6,6,7,7,8,8,9,9,10,10,11,11,12,12,13,13,14,14,15,15,16,16,19,19,20,20,21,21,22,22,23,23,24,24,25,25,26,26,27,27,28,28,29,29,30,30],"right_children":[2,4,6,8,10,12,14,16,18,20,22,